{"learner":{"attributes":{"scikit_learn":"{\"_estimator_type\": \"classifier\"}"},"feature_names":[],"feature_types":[],"gradient_booster":{"model":{"gbtree_model_param":{"num_parallel_tree":"1","num_trees":"100"},"iteration_indptr":[0,1,2,3,4,5,6,7,8,9,10,11,12,13,14,15,16,17,18,19,20,21,22,23,24,25,26,27,28,29,30,31,32,33,34,35,36,37,38,39,40,41,42,43,44,45,46,47,48,49,50,51,52,53,54,55,56,57,58,59,60,61,62,63,64,65,66,67,68,69,70,71,72,73,74,75,76,77,78,79,80,81,82,83,84,85,86,87,88,89,90,91,92,93,94,95,96,97,98,99,100],"tree_info":[0,0,0,0,0,0,0,0,0,0,0,0,0,0,0,0,0,0,0,0,0,0,0,0,0,0,0,0,0,0,0,0,0,0,0,0,0,0,0,0,0,0,0,0,0,0,0,0,0,0,0,0,0,0,0,0,0,0,0,0,0,0,0,0,0,0,0,0,0,0,0,0,0,0,0,0,0,0,0,0,0,0,0,0,0,0,0,0,0,0,0,0,0,0,0,0,0,0,0,0],"trees":[{"base_weights":[-9.035417E-4,1.4361188E0,-5.0729185E-1,-1.6423184E-1,1.6738229E0,-6.922062E-1,4.8019543E-1,6.0643744E-1,2.9830766E-1,-8.1556433E-1,4.027955E-1,-1.6423184E-1,2.8190735E-1,-9.608878E-1,2.791001E-1,-2.6311553E-1,-1.4478825E0,7.500399E-2,-3.785768E-1,-4.7613445E-1,4.013105E-2],"categories":[],"categories_nodes":[],"categories_segments":[],"categories_sizes":[],"default_left":[0,0,1,0,0,1,0,0,0,1,0,0,0,1,0,1,1,0,0,0,0],"id":0,"left_children":[1,3,5,-1,7,9,-1,-1,11,13,-1,-1,-1,15,-1,17,19,-1,-1,-1,-1],"loss_changes":[3.8653137E1,7.4422626E0,1.6417145E1,0E0,5.424946E0,1.0333958E1,0E0,0E0,2.5303392E0,9.85647E0,0E0,0E0,0E0,1.0867493E1,0E0,7.915389E0,4.4566536E0,0E0,0E0,0E0,0E0],"parents":[2147483647,0,0,1,1,2,2,4,4,5,5,8,8,9,9,13,13,15,15,16,16],"right_children":[2,4,6,-1,8,10,-1,-1,12,14,-1,-1,-1,16,-1,18,20,-1,-1,-1,-1],"split_conditions":[4.62378E-2,7.264362E-2,1.4482726E-1,-1.6423184E-1,3.4546185E-2,2.8023902E-2,4.8019543E-1,6.0643744E-1,9.9640265E-2,1.3246834E-1,4.027955E-1,-1.6423184E-1,2.8190735E-1,2.4498826E-2,2.791001E-1,5.0317645E-2,8.293371E-2,7.500399E-2,-3.785768E-1,-4.7613445E-1,4.013105E-2],"split_indices":[295,1504,757,0,1313,1753,0,0,477,626,0,0,0,1346,0,2953,386,0,0,0,0],"split_type":[0,0,0,0,0,0,0,0,0,0,0,0,0,0,0,0,0,0,0,0,0],"sum_hessian":[5.1116333E1,1.2840818E1,3.8275517E1,1.234694E0,1.1606124E1,3.5806126E1,2.469388E0,8.889797E0,2.716327E0,3.4324493E1,1.4816328E0,1.234694E0,1.4816328E0,3.2102047E1,2.2224493E0,1.3828573E1,1.8273472E1,9.630613E0,4.19796E0,1.679184E1,1.4816328E0],"tree_param":{"num_deleted":"0","num_feature":"3120","num_nodes":"21","size_leaf_vector":"1"}},{"base_weights":[1.012788E-2,1.144152E0,-3.5385844E-1,1.3561263E0,-3.5948697E-2,4.8770428E-1,-6.6220796E-1,4.6739706E-1,5.416933E-2,-2.6069862E-1,9.165566E-1,-8.8722014E-1,4.17255E-1,4.643981E-1,8.659651E-3,2.163962E-1,-1.1484736E0,9.9920964E-1,-2.8355658E-1,3.3490545E-1,-2.6252422E-1,-6.128472E-1,3.4099844E-1,-1.2500868E0,5.7215303E-2,-2.8240614E-2,4.2885184E-1,-2.636672E-1,-1.2015823E-2,-4.1182116E-1,-2.9863063E-2],"categories":[],"categories_nodes":[],"categories_segments":[],"categories_sizes":[],"default_left":[0,1,0,1,0,0,1,0,0,0,1,0,0,0,0,1,1,0,0,0,0,1,0,1,0,0,0,0,0,0,0],"id":1,"left_children":[1,3,5,7,-1,9,11,-1,-1,-1,13,15,17,-1,19,21,23,25,-1,-1,-1,27,-1,29,-1,-1,-1,-1,-1,-1,-1],"loss_changes":[2.1017145E1,3.4767628E0,1.0330863E1,2.2517643E0,0E0,7.148588E0,7.328867E0,0E0,0E0,0E0,5.021184E0,7.176157E0,5.4019403E0,0E0,5.4877715E0,4.8484364E0,2.9037628E0,2.216547E0,0E0,0E0,0E0,4.999125E-1,0E0,2.4510708E0,0E0,0E0,0E0,0E0,0E0,0E0,0E0],"parents":[2147483647,0,0,1,1,2,2,3,3,5,5,6,6,10,10,11,11,12,12,14,14,15,15,16,16,17,17,21,21,23,23],"right_children":[2,4,6,8,-1,10,12,-1,-1,-1,14,16,18,-1,20,22,24,26,-1,-1,-1,28,-1,30,-1,-1,-1,-1,-1,-1,-1],"split_conditions":[4.143743E-2,3.8224258E-2,2.491225E-2,7.4711226E-2,-3.5948697E-2,1.3635267E-1,5.1483907E-2,4.6739706E-1,5.416933E-2,-2.6069862E-1,6.137143E-2,2.9348224E-2,7.273944E-2,4.643981E-1,5.9084E-2,8.702848E-3,1.3376966E-1,2.0278458E-1,-2.8355658E-1,3.3490545E-1,-2.6252422E-1,1.4484848E-2,3.4099844E-1,4.1300792E-2,5.7215303E-2,-2.8240614E-2,4.2885184E-1,-2.636672E-1,-1.2015823E-2,-4.1182116E-1,-2.9863063E-2],"split_indices":[295,991,1346,1055,0,521,3011,0,0,0,401,1516,3011,0,2198,1724,626,2026,0,0,0,235,0,2878,0,0,0,0,0,0,0],"split_type":[0,0,0,0,0,0,0,0,0,0,0,0,0,0,0,0,0,0,0,0,0,0,0,0,0,0,0,0,0,0,0],"sum_hessian":[4.893656E1,1.1369796E1,3.7566765E1,9.674453E0,1.6953429E0,9.917575E0,2.764919E1,7.9790077E0,1.6954455E0,2.135492E0,7.7820826E0,2.3027285E1,4.6219063E0,4.174034E0,3.6080482E0,4.4405804E0,1.8586704E1,3.425389E0,1.1965172E0,1.4843422E0,2.123706E0,2.511522E0,1.9290583E0,1.7337715E1,1.2489896E0,1.1880052E0,2.2373838E0,1.3500699E0,1.1614522E0,1.5493006E1,1.8447092E0],"tree_param":{"num_deleted":"0","num_feature":"3120","num_nodes":"31","size_leaf_vector":"1"}},{"base_weights":[1.4230064E-2,7.263687E-1,-3.7896E-1,-2.401115E-1,1.0056088E0,-4.8744962E-1,3.1837076E-1,-1.0544537E-2,1.1669927E0,4.090281E-1,-6.77655E-1,1.3457885E0,2.7456919E-2,3.204813E-1,-3.9433408E-1,-8.007903E-1,2.7676076E-1,4.373552E-1,6.1298076E-2,1.0290729E-1,-2.748398E-1,-9.4247663E-1,1.6957304E-1,-3.190889E-1,1.3903603E-1],"categories":[],"categories_nodes":[],"categories_segments":[],"categories_sizes":[],"default_left":[0,0,1,0,0,0,0,0,1,0,1,1,0,0,1,1,0,0,0,0,0,1,0,0,0],"id":2,"left_children":[1,3,5,-1,7,9,-1,-1,11,13,15,17,-1,-1,19,21,-1,-1,-1,-1,-1,23,-1,-1,-1],"loss_changes":[1.3208484E1,7.9557886E0,5.269648E0,0E0,2.4971228E0,5.217048E0,0E0,0E0,2.316824E0,3.437049E0,5.522091E0,1.0845432E0,0E0,0E0,1.5827916E0,4.9991846E0,0E0,0E0,0E0,0E0,0E0,4.1181316E0,0E0,0E0,0E0],"parents":[2147483647,0,0,1,1,2,2,4,4,5,5,8,8,9,9,10,10,11,11,14,14,15,15,21,21],"right_children":[2,4,6,-1,8,10,-1,-1,12,14,16,18,-1,-1,20,22,-1,-1,-1,-1,-1,24,-1,-1,-1],"split_conditions":[1.3711089E-1,5.204392E-2,2.8023902E-2,-2.401115E-1,9.263354E-3,4.7646172E-2,3.1837076E-1,-1.0544537E-2,4.622853E-2,4.2757966E-2,2.1715008E-1,3.747029E-2,2.7456919E-2,3.204813E-1,1.3675242E-2,4.2372588E-2,2.7676076E-1,4.373552E-1,6.1298076E-2,1.0290729E-1,-2.748398E-1,1.9125396E-1,1.6957304E-1,-3.190889E-1,1.3903603E-1],"split_indices":[2095,2408,1753,0,3011,886,0,0,3064,1313,1549,1731,0,0,1502,1032,0,0,0,0,0,2026,0,0,0],"split_type":[0,0,0,0,0,0,0,0,0,0,0,0,0,0,0,0,0,0,0,0,0,0,0,0,0],"sum_hessian":[4.5189102E1,1.5773342E1,2.941576E1,2.1503096E0,1.3623033E1,2.7970304E1,1.4454566E0,1.9338605E0,1.1689172E1,4.694358E0,2.3275946E1,9.807358E0,1.8818139E0,2.3973396E0,2.297018E0,2.20767E1,1.1992452E0,8.678203E0,1.1291549E0,1.0938709E0,1.2031473E0,2.0282993E1,1.7937084E0,1.889797E1,1.3850229E0],"tree_param":{"num_deleted":"0","num_feature":"3120","num_nodes":"25","size_leaf_vector":"1"}},{"base_weights":[3.336274E-2,7.576018E-1,-2.2864695E-1,-1.00085296E-1,9.8985654E-1,7.3692983E-1,-3.935908E-1,5.8629084E-3,1.1575598E0,3.527652E-1,-1.20352395E-1,-5.796768E-1,3.229646E-1,1.0989111E-1,3.6841205E-1,-8.4458655E-1,2.5229964E-1,6.1950105E-1,-1.4624615E-1,-1.0078048E0,1.3085778E-1,-2.3765047E-1,7.075038E-1,-1.1162624E-1,3.0019024E-1,-3.4814498E-1,1.622971E-1,3.1190962E-1,-4.9427766E-2],"categories":[],"categories_nodes":[],"categories_segments":[],"categories_sizes":[],"default_left":[0,0,0,0,1,1,0,0,0,0,0,1,1,0,0,1,0,0,0,1,0,0,1,0,0,0,0,0,0],"id":3,"left_children":[1,3,5,-1,7,9,11,-1,13,-1,-1,15,17,-1,-1,19,21,23,-1,25,-1,-1,27,-1,-1,-1,-1,-1,-1],"loss_changes":[8.159959E0,3.2228456E0,5.334923E0,0E0,1.5497093E0,2.9544618E0,3.8815732E0,0E0,8.656502E-3,0E0,0E0,5.13946E0,1.8290492E0,0E0,0E0,4.0318184E0,3.493135E0,2.2968392E0,0E0,4.3033676E0,0E0,0E0,1.5691657E0,0E0,0E0,0E0,0E0,0E0,0E0],"parents":[2147483647,0,0,1,1,2,2,4,4,5,5,6,6,8,8,11,11,12,12,15,15,16,16,17,17,19,19,22,22],"right_children":[2,4,6,-1,8,10,12,-1,14,-1,-1,16,18,-1,-1,20,22,24,-1,26,-1,-1,28,-1,-1,-1,-1,-1,-1],"split_conditions":[4.62378E-2,1.191666E-1,3.8819782E-2,-1.00085296E-1,1.5441873E-2,3.315054E-2,1.16241984E-1,5.8629084E-3,6.678847E-2,3.527652E-1,-1.20352395E-1,3.3711463E-2,1.0715523E-1,1.0989111E-1,3.6841205E-1,4.220404E-2,3.2170523E-2,7.966845E-2,-1.4624615E-1,1.7510992E-2,1.3085778E-1,-2.3765047E-1,3.9690513E-2,-1.1162624E-1,3.0019024E-1,-3.4814498E-1,1.622971E-1,3.1190962E-1,-4.9427766E-2],"split_indices":[295,1504,2171,0,1473,873,1548,0,2879,0,0,2183,2679,0,0,637,2896,477,0,1753,0,0,1010,0,0,0,0,0,0],"split_type":[0,0,0,0,0,0,0,0,0,0,0,0,0,0,0,0,0,0,0,0,0,0,0,0,0,0,0,0,0],"sum_hessian":[4.1089138E1,1.0413357E1,3.067578E1,1.7508376E0,8.6625185E0,3.9696717E0,2.6706108E1,1.4410849E0,7.221434E0,2.8408084E0,1.1288633E0,2.1352095E1,5.354013E0,1.0974973E0,6.1239367E0,1.618384E1,5.1682563E0,4.092293E0,1.2617202E0,1.4543586E1,1.6402538E0,1.344059E0,3.824197E0,1.1428056E0,2.9494874E0,1.3466765E1,1.0768206E0,2.630453E0,1.193744E0],"tree_param":{"num_deleted":"0","num_feature":"3120","num_nodes":"29","size_leaf_vector":"1"}},{"base_weights":[3.8149185E-2,5.5408454E-1,-2.4778719E-1,-1.8306386E-1,7.817093E-1,-3.5142353E-1,2.4364819E-1,9.6209353E-1,1.0360664E-3,-4.85535E-3,-7.309474E-1,6.3286014E-2,1.1105962E0,1.7405626E-1,-1.7519015E-1,4.4845408E-1,-6.0956496E-1,1.996708E-1,-9.390504E-1,3.5828966E-1,9.4526395E-2,8.421413E-1,-1.7818494E-1,-8.8152117E-1,1.076756E-1,-3.3392406E-1,8.917279E-2,7.223134E-3,3.1154728E-1,-5.5026844E-2,-3.0592695E-1],"categories":[],"categories_nodes":[],"categories_segments":[],"categories_sizes":[],"default_left":[0,0,1,0,1,1,0,1,0,1,0,0,1,0,0,1,1,0,1,0,0,0,0,0,0,0,0,0,0,0,0],"id":4,"left_children":[1,3,5,-1,7,9,-1,11,13,15,17,-1,19,-1,-1,21,23,-1,25,-1,-1,27,-1,29,-1,-1,-1,-1,-1,-1,-1],"loss_changes":[5.7462993E0,4.152002E0,3.0485668E0,0E0,1.6941285E0,3.1021166E0,0E0,8.563051E-1,1.4434608E0,3.932424E0,3.8983388E0,0E0,1.5162945E-1,0E0,0E0,3.8675232E0,1.9343657E0,0E0,2.5291386E0,0E0,0E0,9.981179E-1,0E0,3.0371714E-1,0E0,0E0,0E0,0E0,0E0,0E0,0E0],"parents":[2147483647,0,0,1,1,2,2,4,4,5,5,7,7,8,8,9,9,10,10,12,12,15,15,16,16,18,18,21,21,23,23],"right_children":[2,4,6,-1,8,10,-1,12,14,16,18,-1,20,-1,-1,22,24,-1,26,-1,-1,28,-1,30,-1,-1,-1,-1,-1,-1,-1],"split_conditions":[1.3711089E-1,5.204392E-2,4.1655444E-2,-1.8306386E-1,4.4299982E-2,6.7525203E-3,2.4364819E-1,7.0148176E-3,2.102631E-1,1.0577942E-1,1.1827167E-1,6.3286014E-2,8.273543E-2,1.7405626E-1,-1.7519015E-1,1.11649245E-1,1.1746382E-1,1.996708E-1,4.2372588E-2,3.5828966E-1,9.4526395E-2,2.5888205E-2,-1.7818494E-1,1.2026724E-2,1.076756E-1,-3.3392406E-1,8.917279E-2,7.223134E-3,3.1154728E-1,-5.5026844E-2,-3.0592695E-1],"split_indices":[2095,2408,1657,0,2897,1055,0,3064,2192,2679,318,0,383,0,0,1868,2180,0,1032,0,0,2233,0,514,0,0,0,0,0,0,0],"split_type":[0,0,0,0,0,0,0,0,0,0,0,0,0,0,0,0,0,0,0,0,0,0,0,0,0,0,0,0,0,0,0],"sum_hessian":[3.7020786E1,1.2866698E1,2.4154087E1,1.8292625E0,1.1037436E1,2.2611683E1,1.5424043E0,8.777009E0,2.2604268E0,1.2348369E1,1.0263314E1,1.8483613E0,6.9286475E0,1.1400312E0,1.1203954E0,7.2053833E0,5.1429853E0,1.045955E0,9.21736E0,5.815448E0,1.1131997E0,5.3695636E0,1.8358198E0,4.085534E0,1.0574512E0,8.167329E0,1.0500307E0,1.2566258E0,4.1129375E0,1.0598917E0,3.0256426E0],"tree_param":{"num_deleted":"0","num_feature":"3120","num_nodes":"31","size_leaf_vector":"1"}},{"base_weights":[3.861258E-2,6.3338566E-1,-1.6515979E-1,-1.6463917E-1,8.625796E-1,-3.5448524E-1,6.601697E-1,3.0700117E-1,-2.672559E-2,2.4920179E-1,-4.863806E-1,-8.4205486E-2,3.185547E-1,-6.8516E-1,4.5030415E-1,-8.1622857E-1,2.000866E-1,-1.2085024E-1,2.6450962E-1,-2.904053E-1,9.001757E-2],"categories":[],"categories_nodes":[],"categories_segments":[],"categories_sizes":[],"default_left":[0,0,1,0,1,0,1,0,0,0,1,0,0,1,0,1,0,0,0,0,0],"id":5,"left_children":[1,3,5,-1,7,9,11,-1,-1,-1,13,-1,-1,15,17,19,-1,-1,-1,-1,-1],"loss_changes":[4.2552295E0,2.8972461E0,4.3436565E0,0E0,1.2970052E0,3.849847E0,2.2847178E0,0E0,0E0,0E0,4.1193523E0,0E0,0E0,3.6068401E0,1.8959593E0,3.035924E0,0E0,0E0,0E0,0E0,0E0],"parents":[2147483647,0,0,1,1,2,2,4,4,5,5,6,6,10,10,13,13,14,14,15,15],"right_children":[2,4,6,-1,8,10,12,-1,-1,-1,14,-1,-1,16,18,20,-1,-1,-1,-1,-1],"split_conditions":[4.8236594E-2,5.3787168E-2,1.0320139E-1,-1.6463917E-1,1.939048E-2,1.487233E-1,2.5316037E-2,3.0700117E-1,-2.672559E-2,2.4920179E-1,7.892691E-2,-8.4205486E-2,3.185547E-1,1.4482726E-1,3.682552E-2,4.681989E-2,2.000866E-1,-1.2085024E-1,2.6450962E-1,-2.904053E-1,9.001757E-2],"split_indices":[1116,917,2192,0,1417,3001,3011,0,0,0,1309,0,0,757,1594,2183,0,0,0,0,0],"split_type":[0,0,0,0,0,0,0,0,0,0,0,0,0,0,0,0,0,0,0,0,0],"sum_hessian":[3.324651E1,7.945831E0,2.530068E1,1.0638778E0,6.8819532E0,2.1043846E1,4.256835E0,5.8230033E0,1.0589498E0,1.5768598E0,1.9466986E1,1.3637471E0,2.8930879E0,1.6280527E1,3.1864588E0,1.5203129E1,1.0773982E0,1.0923669E0,2.094092E0,1.3500235E1,1.7028936E0],"tree_param":{"num_deleted":"0","num_feature":"3120","num_nodes":"21","size_leaf_vector":"1"}},{"base_weights":[5.2835714E-2,6.6843003E-1,-1.0509269E-1,-3.6049776E-2,2.83913E-1,3.688158E-2,-2.3388375E-1,-1.4668253E-1,7.309238E-1,4.9783432E-1,-3.1246737E-1,4.6917282E-2,3.0688035E-1,2.3958866E-1,-3.5913773E-2,1.2990803E-2,-7.671862E-1,-2.1262753E-1,9.058694E-2,2.5424534E-2,-2.8854725E-1],"categories":[],"categories_nodes":[],"categories_segments":[],"categories_sizes":[],"default_left":[0,0,1,0,0,1,0,0,0,0,1,0,0,0,0,0,0,0,0,0,0],"id":6,"left_children":[1,3,5,-1,-1,7,-1,9,11,13,15,-1,-1,-1,-1,17,19,-1,-1,-1,-1],"loss_changes":[3.0339136E0,1.5076995E0,2.4347801E0,0E0,0E0,2.873165E0,0E0,2.0791264E0,6.299181E-1,8.5141075E-1,2.2200048E0,0E0,0E0,0E0,0E0,2.2343838E0,1.1172674E0,0E0,0E0,0E0,0E0],"parents":[2147483647,0,0,1,1,2,2,5,5,7,7,8,8,9,9,10,10,15,15,16,16],"right_children":[2,4,6,-1,-1,8,-1,10,12,14,16,-1,-1,-1,-1,18,20,-1,-1,-1,-1],"split_conditions":[5.8157776E-2,3.622199E-2,6.999007E-2,-3.6049776E-2,2.83913E-1,2.8315693E-2,-2.3388375E-1,3.8868953E-2,6.418656E-2,6.400484E-2,2.491225E-2,4.6917282E-2,3.0688035E-1,2.3958866E-1,-3.5913773E-2,1.8006245E-2,3.997709E-2,-2.1262753E-1,9.058694E-2,2.5424534E-2,-2.8854725E-1],"split_indices":[2095,2233,1346,0,0,977,0,964,1507,948,1346,0,0,0,0,1724,295,0,0,0,0],"split_type":[0,0,0,0,0,0,0,0,0,0,0,0,0,0,0,0,0,0,0,0,0],"sum_hessian":[2.9484175E1,5.359748E0,2.4124426E1,1.5447148E0,3.8150332E0,2.071055E1,3.413876E0,1.7002335E1,3.7082164E0,3.068832E0,1.3933502E1,1.7670666E0,1.9411497E0,1.8664796E0,1.2023522E0,8.687201E0,5.2463017E0,2.0683477E0,6.618853E0,1.0806882E0,4.1656137E0],"tree_param":{"num_deleted":"0","num_feature":"3120","num_nodes":"21","size_leaf_vector":"1"}},{"base_weights":[4.4738833E-2,4.3183407E-1,-1.702817E-1,-2.697657E-1,7.69573E-1,-2.7855706E-1,1.7711456E-1,1.7748709E-1,-2.2931962E-1,2.8564575E-1,-3.591621E-2,5.7711797E-3,-6.6034174E-1,-6.328822E-1,3.2480332E-1,-2.5370306E-1,-8.0332806E-4,-2.3956478E-1,-2.2665404E-2,5.869284E-1,-1.1689431E-1,-2.1637803E-2,2.5853604E-1],"categories":[],"categories_nodes":[],"categories_segments":[],"categories_sizes":[],"default_left":[0,0,1,0,1,1,0,0,0,0,0,0,1,0,0,0,0,0,0,0,0,0,0],"id":7,"left_children":[1,3,5,7,9,11,-1,-1,-1,-1,-1,13,15,17,19,-1,-1,-1,-1,21,-1,-1,-1],"loss_changes":[2.4094088E0,2.6493917E0,1.7095009E0,2.1944556E0,1.2855849E0,1.8601934E0,0E0,0E0,0E0,0E0,0E0,2.4046452E0,8.885305E-1,3.0295599E-1,1.7003795E0,0E0,0E0,0E0,0E0,1.175863E0,0E0,0E0,0E0],"parents":[2147483647,0,0,1,1,2,2,3,3,4,4,5,5,11,11,12,12,13,13,14,14,19,19],"right_children":[2,4,6,8,10,12,-1,-1,-1,-1,-1,14,16,18,20,-1,-1,-1,-1,22,-1,-1,-1],"split_conditions":[1.3711089E-1,5.62195E-2,4.776335E-2,2.9766407E-2,3.6210082E-2,6.180484E-2,1.7711456E-1,1.7748709E-1,-2.2931962E-1,2.8564575E-1,-3.591621E-2,3.7389006E-2,2.4616605E-2,5.7126336E-2,7.273944E-2,-2.5370306E-1,-8.0332806E-4,-2.3956478E-1,-2.2665404E-2,3.3612198E-1,-1.1689431E-1,-2.1637803E-2,2.5853604E-1],"split_indices":[2095,1417,2991,2896,948,2180,0,0,0,0,0,2026,3076,453,3011,0,0,0,0,1055,0,0,0],"split_type":[0,0,0,0,0,0,0,0,0,0,0,0,0,0,0,0,0,0,0,0,0,0,0],"sum_hessian":[2.7064154E1,9.304748E0,1.7759407E1,3.08903E0,6.2157173E0,1.6101292E1,1.658114E0,1.0552522E0,2.033778E0,5.098308E0,1.1174092E0,9.7929945E0,6.3082976E0,2.9346066E0,6.8583884E0,4.698377E0,1.6099207E0,1.9285372E0,1.0060692E0,5.148093E0,1.7102948E0,1.7322053E0,3.415888E0],"tree_param":{"num_deleted":"0","num_feature":"3120","num_nodes":"23","size_leaf_vector":"1"}},{"base_weights":[3.404339E-2,4.1645598E-1,-1.7624007E-1,6.414958E-1,-1.4023733E-1,6.2920594E-1,-4.0640342E-1,8.6007863E-1,-9.813936E-2,2.7467492E-3,2.555234E-1,-7.2700125E-1,6.9371246E-2,3.01909E-1,4.2452004E-2,-8.7510866E-1,4.8982717E-2,3.4721953E-1,-1.7072232E-1,-3.0289137E-1,-2.574508E-2,-8.0737166E-2,2.3528272E-1],"categories":[],"categories_nodes":[],"categories_segments":[],"categories_sizes":[],"default_left":[0,1,0,1,0,0,0,0,0,0,0,1,0,0,0,1,0,0,0,0,0,0,0],"id":8,"left_children":[1,3,5,7,-1,9,11,13,-1,-1,-1,15,17,-1,-1,19,-1,21,-1,-1,-1,-1,-1],"loss_changes":[2.1291225E0,2.1631608E0,3.4437118E0,1.9514179E0,0E0,5.737246E-1,2.1831923E0,5.6304073E-1,0E0,0E0,0E0,1.255825E0,1.3580502E0,0E0,0E0,6.984587E-1,0E0,1.6062199E0,0E0,0E0,0E0,0E0,0E0],"parents":[2147483647,0,0,1,1,2,2,3,3,5,5,6,6,7,7,11,11,12,12,15,15,17,17],"right_children":[2,4,6,8,-1,10,12,14,-1,-1,-1,16,18,-1,-1,20,-1,22,-1,-1,-1,-1,-1],"split_conditions":[6.4091586E-2,2.437637E-2,2.2150567E-2,1.03695765E-2,-1.4023733E-1,1.6540824E-2,6.0816947E-2,6.999007E-2,-9.813936E-2,2.7467492E-3,2.555234E-1,3.8930144E-2,7.273944E-2,3.01909E-1,4.2452004E-2,1.6713075E-2,4.8982717E-2,1.2533122E-1,-1.7072232E-1,-3.0289137E-1,-2.574508E-2,-8.0737166E-2,2.3528272E-1],"split_indices":[1516,2823,1346,3028,0,1724,2233,1346,0,0,0,1116,3011,0,0,362,0,2026,0,0,0,0,0],"split_type":[0,0,0,0,0,0,0,0,0,0,0,0,0,0,0,0,0,0,0,0,0,0,0],"sum_hessian":[2.4563951E1,8.367223E0,1.6196728E1,6.8878636E0,1.4793594E0,3.2143881E0,1.298234E1,5.7111382E0,1.1767254E0,1.1239414E0,2.0904467E0,7.440541E0,5.541799E0,4.412376E0,1.2987624E0,6.3938847E0,1.0466558E0,4.179187E0,1.3626122E0,5.2242746E0,1.1696101E0,1.8933669E0,2.28582E0],"tree_param":{"num_deleted":"0","num_feature":"3120","num_nodes":"23","size_leaf_vector":"1"}},{"base_weights":[3.0496059E-2,4.8385134E-1,-1.316381E-1,7.1170115E-1,-8.831206E-2,-2.8161466E-1,4.778481E-1,2.2713492E-2,2.5694424E-1,3.6861417E-1,-4.3654865E-1,-3.92548E-2,2.2583593E-1,2.1294565E-1,-5.9816334E-2,-7.1360207E-1,2.9474232E-4,-2.5683293E-1,2.065417E-2,3.2780236E-1,-1.3400616E-1,-7.869333E-2,1.8708949E-1],"categories":[],"categories_nodes":[],"categories_segments":[],"categories_sizes":[],"default_left":[0,1,1,1,0,0,1,0,0,0,1,0,0,0,0,1,0,0,0,0,0,0,0],"id":9,"left_children":[1,3,5,7,-1,9,11,-1,-1,13,15,-1,-1,-1,-1,17,19,-1,-1,21,-1,-1,-1],"loss_changes":[1.7411876E0,1.3134258E0,1.7430006E0,4.055171E-1,0E0,1.6469136E0,7.420836E-1,0E0,0E0,7.966958E-1,1.497324E0,0E0,0E0,0E0,0E0,9.030018E-1,9.955113E-1,0E0,0E0,8.4864527E-1,0E0,0E0,0E0],"parents":[2147483647,0,0,1,1,2,2,3,3,5,5,6,6,9,9,10,10,15,15,16,16,19,19],"right_children":[2,4,6,8,-1,10,12,-1,-1,14,16,-1,-1,-1,-1,18,20,-1,-1,22,-1,-1,-1],"split_conditions":[4.8236594E-2,1.939048E-2,1.0320139E-1,8.726159E-3,-8.831206E-2,2.9178198E-2,3.0163273E-2,2.2713492E-2,2.5694424E-1,5.721409E-2,1.5786331E-2,-3.92548E-2,2.2583593E-1,2.1294565E-1,-5.9816334E-2,5.0519533E-2,1.12749204E-1,-2.5683293E-1,2.065417E-2,1.60434E-2,-1.3400616E-1,-7.869333E-2,1.8708949E-1],"split_indices":[1116,1417,2192,2456,0,948,3011,0,0,964,2994,0,0,0,0,2183,1868,0,0,514,0,0,0],"split_type":[0,0,0,0,0,0,0,0,0,0,0,0,0,0,0,0,0,0,0,0,0,0,0],"sum_hessian":[2.1821692E1,5.225637E0,1.6596054E1,4.108288E0,1.1173493E0,1.3750427E1,2.8456273E0,1.0442107E0,3.0640771E0,2.3805473E0,1.136988E1,1.0484648E0,1.7971625E0,1.331203E0,1.0493443E0,6.5697145E0,4.8001657E0,5.4778852E0,1.091829E0,2.924206E0,1.8759598E0,1.0142684E0,1.9099375E0],"tree_param":{"num_deleted":"0","num_feature":"3120","num_nodes":"23","size_leaf_vector":"1"}},{"base_weights":[3.6739573E-2,5.4264224E-1,-8.2594685E-2,1.4146672E-2,2.292816E-1,3.3094165E-1,-3.075721E-1,-1.17600165E-1,5.559458E-1,-5.605541E-1,7.11526E-2,4.6791467E-3,6.793726E-1,-2.4131393E-1,-5.686763E-2,2.929532E-1,-1.3868143E-1,5.2878242E-2,2.334979E-1,9.9186175E-2,-1.1954358E-1,-5.9103947E-2,2.1714182E-1],"categories":[],"categories_nodes":[],"categories_segments":[],"categories_sizes":[],"default_left":[0,0,0,0,0,0,0,0,0,1,0,0,0,0,0,0,0,0,0,0,0,0,0],"id":10,"left_children":[1,3,5,-1,-1,7,9,-1,11,13,15,-1,17,-1,19,21,-1,-1,-1,-1,-1,-1,-1],"loss_changes":[1.2970463E0,4.1320896E-1,1.7439768E0,0E0,0E0,1.3079433E0,1.1848278E0,0E0,3.5781562E-1,8.4796E-1,8.0662477E-1,0E0,8.551335E-2,0E0,5.8838475E-1,1.1176956E0,0E0,0E0,0E0,0E0,0E0,0E0,0E0],"parents":[2147483647,0,0,1,1,2,2,5,5,6,6,8,8,9,9,10,10,12,12,14,14,15,15],"right_children":[2,4,6,-1,-1,8,10,-1,12,14,16,-1,18,-1,20,22,-1,-1,-1,-1,-1,-1,-1],"split_conditions":[1.9871837E-2,1.8006245E-2,6.4091586E-2,1.4146672E-2,2.292816E-1,5.1528174E-2,6.0816947E-2,-1.17600165E-1,5.823536E-2,2.3591833E-2,7.273944E-2,4.6791467E-3,8.6398525E-3,-2.4131393E-1,4.059326E-2,6.634316E-2,-1.3868143E-1,5.2878242E-2,2.334979E-1,9.9186175E-2,-1.1954358E-1,-5.9103947E-2,2.1714182E-1],"split_indices":[1346,1724,1516,0,0,1006,2233,0,950,3064,3011,0,1502,0,948,2640,0,0,0,0,0,0,0],"split_type":[0,0,0,0,0,0,0,0,0,0,0,0,0,0,0,0,0,0,0,0,0,0,0],"sum_hessian":[1.9742018E1,3.090974E0,1.6651043E1,1.3301009E0,1.7608731E0,5.700965E0,1.0950078E1,1.1770122E0,4.523953E0,6.2770205E0,4.673058E0,1.0506583E0,3.4732945E0,3.827305E0,2.4497154E0,3.6190455E0,1.0540127E0,1.0279776E0,2.445317E0,1.1628597E0,1.2868556E0,1.9473048E0,1.6717407E0],"tree_param":{"num_deleted":"0","num_feature":"3120","num_nodes":"23","size_leaf_vector":"1"}},{"base_weights":[3.7780408E-2,4.4023702E-1,-1.1357855E-1,1.9908278E-1,-3.1161087E-2,1.350556E-1,-2.2696361E-1,2.9995134E-1,-4.0811786E-1,-5.1472336E-2,2.0711763E-1,-5.941733E-1,6.2426835E-2,-2.3134993E-1,-5.7210946E-3,1.1316509E-1,-1.1397615E-1],"categories":[],"categories_nodes":[],"categories_segments":[],"categories_sizes":[],"default_left":[0,0,0,0,0,0,0,1,1,0,0,1,0,0,0,0,0],"id":11,"left_children":[1,3,5,-1,-1,-1,7,9,11,-1,-1,13,15,-1,-1,-1,-1],"loss_changes":[1.2117461E0,7.273452E-1,1.0389004E0,0E0,0E0,0E0,1.3504328E0,8.3053386E-1,9.1233253E-1,0E0,0E0,7.242365E-1,6.637862E-1,0E0,0E0,0E0,0E0],"parents":[2147483647,0,0,1,1,2,2,6,6,7,7,8,8,11,11,12,12],"right_children":[2,4,6,-1,-1,-1,8,10,12,-1,-1,14,16,-1,-1,-1,-1],"split_conditions":[4.62378E-2,3.4546185E-2,3.8819782E-2,1.9908278E-1,-3.1161087E-2,1.350556E-1,3.2538608E-2,7.1802773E-3,2.7558032E-2,-5.1472336E-2,2.0711763E-1,5.1483907E-2,8.7930575E-2,-2.3134993E-1,-5.7210946E-3,1.1316509E-1,-1.1397615E-1],"split_indices":[295,1313,2171,0,0,0,2372,258,3060,0,0,3011,1868,0,0,0,0],"split_type":[0,0,0,0,0,0,0,0,0,0,0,0,0,0,0,0,0],"sum_hessian":[1.807144E1,4.417348E0,1.3654091E1,2.9759877E0,1.4413605E0,1.7889266E0,1.1865165E1,2.8678384E0,8.997326E0,1.5529457E0,1.3148926E0,6.259541E0,2.7377853E0,4.525775E0,1.733766E0,1.685536E0,1.0522493E0],"tree_param":{"num_deleted":"0","num_feature":"3120","num_nodes":"17","size_leaf_vector":"1"}},{"base_weights":[3.9903432E-2,-1.5717715E-1,1.3215987E-1,-3.9418703E-1,2.4328993E-1,2.7547725E-3,-1.760636E-1,6.36023E-1,2.5921393E-2,4.5623537E-2,2.190008E-1,5.2013993E-1,-2.157577E-1,1.9239314E-1,3.3621695E-2,-5.2552056E-1,1.9418173E-1,-5.8129826E-4,-2.1378084E-1,-3.969137E-2,1.3974237E-1],"categories":[],"categories_nodes":[],"categories_segments":[],"categories_sizes":[],"default_left":[0,0,0,0,0,0,0,0,0,0,0,1,1,0,0,0,0,0,0,0,0],"id":12,"left_children":[1,-1,3,5,7,-1,-1,9,11,-1,-1,13,15,-1,-1,17,19,-1,-1,-1,-1],"loss_changes":[9.878251E-1,0E0,1.0303121E0,2.515075E-1,1.162294E0,0E0,0E0,1.1080003E-1,1.2984179E0,0E0,0E0,1.0389191E-1,1.0387313E0,0E0,0E0,4.3660414E-1,4.0793484E-1,0E0,0E0,0E0,0E0],"parents":[2147483647,0,0,2,2,3,3,4,4,7,7,8,8,11,11,12,12,15,15,16,16],"right_children":[2,-1,4,6,8,-1,-1,10,12,-1,-1,14,16,-1,-1,18,20,-1,-1,-1,-1],"split_conditions":[6.844963E-2,-1.5717715E-1,4.535594E-2,5.4527916E-2,6.4091586E-2,2.7547725E-3,-1.760636E-1,1.9944346E-2,2.4439234E-2,4.5623537E-2,2.190008E-1,4.9088653E-2,3.4604467E-2,1.9239314E-1,3.3621695E-2,2.8899938E-2,6.634316E-2,-5.8129826E-4,-2.1378084E-1,-3.969137E-2,1.3974237E-1],"split_indices":[2697,0,1222,948,1516,0,0,2287,1346,0,0,1473,3011,0,0,1313,2640,0,0,0,0],"split_type":[0,0,0,0,0,0,0,0,0,0,0,0,0,0,0,0,0,0,0,0,0],"sum_hessian":[1.6659393E1,1.6846465E0,1.4974748E1,2.1664903E0,1.2808257E1,1.0082414E0,1.1582488E0,3.8771539E0,8.931104E0,1.0562485E0,2.8209052E0,2.5547035E0,6.3764005E0,1.5290829E0,1.0256205E0,3.4713752E0,2.905025E0,1.1798137E0,2.2915616E0,1.5522206E0,1.3528043E0],"tree_param":{"num_deleted":"0","num_feature":"3120","num_nodes":"21","size_leaf_vector":"1"}},{"base_weights":[3.2858282E-2,4.554986E-1,-8.3051085E-2,1.938332E-1,-4.7127213E-3,3.387588E-2,-1.6394174E-1,-1.3454567E-1,1.6651219E-1,3.0398417E-1,-1.0938591E-1,4.5486796E-1,-9.586275E-2,-3.7512854E-2,1.7034096E-1],"categories":[],"categories_nodes":[],"categories_segments":[],"categories_sizes":[],"default_left":[0,1,1,0,0,0,0,0,1,0,0,0,0,0,0],"id":13,"left_children":[1,3,5,-1,-1,7,-1,-1,9,11,-1,13,-1,-1,-1],"loss_changes":[8.3878803E-1,3.4006542E-1,7.5961685E-1,0E0,0E0,8.336553E-1,0E0,0E0,8.434597E-1,9.465393E-1,0E0,5.470915E-1,0E0,0E0,0E0],"parents":[2147483647,0,0,1,1,2,2,5,5,8,8,9,9,11,11],"right_children":[2,4,6,-1,-1,8,-1,-1,10,12,-1,14,-1,-1,-1],"split_conditions":[5.8157776E-2,9.703409E-3,6.965732E-2,1.938332E-1,-4.7127213E-3,1.3635267E-1,-1.6394174E-1,-1.3454567E-1,4.0564045E-2,7.273944E-2,-1.0938591E-1,3.4933828E-2,-9.586275E-2,-3.7512854E-2,1.7034096E-1],"split_indices":[2095,1417,1346,0,0,521,0,0,2171,3011,0,1594,0,0,0],"split_type":[0,0,0,0,0,0,0,0,0,0,0,0,0,0,0],"sum_hessian":[1.5350101E1,2.6731632E0,1.2676938E1,1.6389842E0,1.0341791E0,1.0862975E1,1.813963E0,1.8292354E0,9.033739E0,7.5160418E0,1.5176976E0,6.269429E0,1.2466128E0,1.0044533E0,5.264976E0],"tree_param":{"num_deleted":"0","num_feature":"3120","num_nodes":"15","size_leaf_vector":"1"}},{"base_weights":[1.3924411E-2,3.5263595E-1,-1.1298179E-1,1.7520028E-1,-6.3516535E-2,-2.3077886E-1,1.0862889E-1,-3.6037773E-1,9.0437554E-2,8.9716844E-2,-4.9341273E-1,-6.548599E-1,-3.278124E-3,-5.385705E-4,-2.470989E-1],"categories":[],"categories_nodes":[],"categories_segments":[],"categories_sizes":[],"default_left":[0,1,1,0,0,1,0,0,0,0,0,0,0,0,0],"id":14,"left_children":[1,3,5,-1,-1,7,-1,9,-1,-1,11,13,-1,-1,-1],"loss_changes":[7.019579E-1,7.0351386E-1,7.5302553E-1,0E0,0E0,8.119691E-1,0E0,9.068742E-1,0E0,0E0,5.832741E-1,6.227362E-1,0E0,0E0,0E0],"parents":[2147483647,0,0,1,1,2,2,5,5,7,7,10,10,11,11],"right_children":[2,4,6,-1,-1,8,-1,10,-1,-1,12,14,-1,-1,-1],"split_conditions":[4.8236594E-2,4.6274792E-2,1.0320139E-1,1.7520028E-1,-6.3516535E-2,7.892691E-2,1.0862889E-1,7.608918E-1,9.0437554E-2,8.9716844E-2,2.0445812E-1,6.6974014E-2,-3.278124E-3,-5.385705E-4,-2.470989E-1],"split_indices":[1116,2897,2192,0,0,1309,0,3001,0,0,2026,2095,0,0,0],"split_type":[0,0,0,0,0,0,0,0,0,0,0,0,0,0,0],"sum_hessian":[1.4403576E1,3.4409628E0,1.0962613E1,2.4157796E0,1.0251832E0,9.196534E0,1.7660793E0,7.655366E0,1.5411679E0,1.0756392E0,6.5797267E0,4.662365E0,1.9173621E0,1.1651748E0,3.4971898E0],"tree_param":{"num_deleted":"0","num_feature":"3120","num_nodes":"15","size_leaf_vector":"1"}},{"base_weights":[1.7211918E-2,3.2266214E-1,-1.20765634E-1,-4.0427066E-2,4.8087776E-1,-2.917051E-1,2.7890417E-1,1.8305802E-1,2.529403E-2,6.893084E-2,-4.5763302E-1,1.3877138E-1,-2.5111407E-2,1.1885336E-2,-6.14649E-1,-2.2047366E-1,-2.8627802E-2],"categories":[],"categories_nodes":[],"categories_segments":[],"categories_sizes":[],"default_left":[0,0,1,0,1,0,0,0,0,0,0,0,0,0,1,0,0],"id":15,"left_children":[1,3,5,-1,7,9,11,-1,-1,-1,13,-1,-1,-1,15,-1,-1],"loss_changes":[6.451037E-1,4.083817E-1,8.0790627E-1,0E0,1.4067006E-1,7.9196286E-1,2.8494114E-1,0E0,0E0,0E0,5.205883E-1,0E0,0E0,0E0,2.3528337E-1,0E0,0E0],"parents":[2147483647,0,0,1,1,2,2,4,4,5,5,6,6,10,10,14,14],"right_children":[2,4,6,-1,8,10,12,-1,-1,-1,14,-1,-1,-1,16,-1,-1],"split_conditions":[2.491225E-2,4.167168E-1,7.978266E-3,-4.0427066E-2,5.0317645E-2,3.8900692E-2,7.069286E-2,1.8305802E-1,2.529403E-2,6.893084E-2,5.7201944E-2,1.3877138E-1,-2.5111407E-2,1.1885336E-2,5.9003454E-2,-2.2047366E-1,-2.8627802E-2],"split_indices":[1346,2809,2824,0,2953,1516,1313,0,0,0,2727,0,0,0,3011,0,0],"split_type":[0,0,0,0,0,0,0,0,0,0,0,0,0,0,0,0,0],"sum_hessian":[1.3382091E1,3.7474952E0,9.634596E0,1.0011959E0,2.7462993E0,6.937535E0,2.6970608E0,1.6647434E0,1.0815557E0,1.5817361E0,5.3557987E0,1.607275E0,1.0897858E0,1.4647605E0,3.8910382E0,2.8219962E0,1.069042E0],"tree_param":{"num_deleted":"0","num_feature":"3120","num_nodes":"17","size_leaf_vector":"1"}},{"base_weights":[1.9469744E-2,-6.801083E-2,1.4779565E-1,-1.6396454E-1,1.1758051E-1,7.662693E-2,-3.6160305E-1,-1.2755741E-1,2.7768707E-1,6.6109635E-2,-5.400028E-1,5.068671E-1,-5.8229588E-2,2.4564313E-2,-2.2315638E-1,3.7866622E-2,1.8761379E-1],"categories":[],"categories_nodes":[],"categories_segments":[],"categories_sizes":[],"default_left":[1,1,0,1,0,0,0,0,0,0,0,0,0,0,0,0,0],"id":16,"left_children":[1,3,-1,5,-1,7,9,-1,11,-1,13,15,-1,-1,-1,-1,-1],"loss_changes":[5.976082E-1,6.106334E-1,0E0,5.482913E-1,0E0,6.994963E-1,7.6118845E-1,0E0,6.0863566E-1,0E0,6.9781077E-1,7.683796E-2,0E0,0E0,0E0,0E0,0E0],"parents":[2147483647,0,0,1,1,3,3,5,5,6,6,8,8,10,10,11,11],"right_children":[2,4,-1,6,-1,8,10,-1,12,-1,14,16,-1,-1,-1,-1,-1],"split_conditions":[1.4482726E-1,3.1790517E-2,1.4779565E-1,5.7201944E-2,1.1758051E-1,2.8115785E-2,1.739402E-1,-1.2755741E-1,1.0367824E-1,6.6109635E-2,3.2517847E-2,5.2409075E-2,-5.8229588E-2,2.4564313E-2,-2.2315638E-1,3.7866622E-2,1.8761379E-1],"split_indices":[757,318,0,2727,0,2026,342,0,2679,0,948,2640,0,0,0,0,0],"split_type":[0,0,0,0,0,0,0,0,0,0,0,0,0,0,0,0,0],"sum_hessian":[1.2627552E1,1.1379933E1,1.2476193E0,9.948082E0,1.4318514E0,4.762649E0,5.1854324E0,1.0434915E0,3.7191575E0,1.1614299E0,4.0240026E0,2.4531355E0,1.266022E0,1.1411287E0,2.882874E0,1.0727295E0,1.380406E0],"tree_param":{"num_deleted":"0","num_feature":"3120","num_nodes":"17","size_leaf_vector":"1"}},{"base_weights":[2.626761E-2,-1.2007748E-1,1.1247673E-1,4.4988757E-1,-2.4254253E-2,1.1177067E-2,1.8373103E-1,1.3062128E-1,-1.5295328E-1,-3.5320717E-1,1.3518213E-1,5.3627335E-2,-1.8507443E-1,1.09575815E-1,-6.2885515E-2],"categories":[],"categories_nodes":[],"categories_segments":[],"categories_sizes":[],"default_left":[0,0,0,0,0,0,0,0,0,0,0,0,0,0,0],"id":17,"left_children":[1,-1,3,5,7,-1,-1,-1,9,11,13,-1,-1,-1,-1],"loss_changes":[5.1185185E-1,0E0,5.341632E-1,1.9998968E-1,6.001976E-1,0E0,0E0,0E0,4.9705714E-1,7.935802E-1,3.8722122E-1,0E0,0E0,0E0,0E0],"parents":[2147483647,0,0,2,2,3,3,4,4,8,8,9,9,10,10],"right_children":[2,-1,4,6,8,-1,-1,-1,10,12,14,-1,-1,-1,-1],"split_conditions":[5.8114856E-2,-1.2007748E-1,4.8236594E-2,2.2426471E-2,3.4170564E-2,1.1177067E-2,1.8373103E-1,1.3062128E-1,6.070462E-2,4.1430082E-2,5.9003454E-2,5.3627335E-2,-1.8507443E-1,1.09575815E-1,-6.2885515E-2],"split_indices":[917,0,1116,3064,1010,0,0,0,2233,948,3011,0,0,0,0],"split_type":[0,0,0,0,0,0,0,0,0,0,0,0,0,0,0],"sum_hessian":[1.169586E1,1.353995E0,1.0341865E1,2.3218722E0,8.019993E0,1.0035548E0,1.3183175E0,1.2330258E0,6.786967E0,3.8708744E0,2.9160924E0,1.3896782E0,2.4811962E0,1.7134588E0,1.2026336E0],"tree_param":{"num_deleted":"0","num_feature":"3120","num_nodes":"15","size_leaf_vector":"1"}},{"base_weights":[2.9072938E-2,3.615235E-1,-8.187212E-2,1.5322221E-2,1.4974128E-1,2.8406313E-1,-2.3053467E-1,1.4435549E-1,-2.1214053E-2,-4.2734128E-1,9.2086375E-2,-1.869283E-1,3.7224952E-2,8.972246E-2,-5.7774168E-2],"categories":[],"categories_nodes":[],"categories_segments":[],"categories_sizes":[],"default_left":[0,0,0,0,0,0,0,0,0,1,0,0,0,0,0],"id":18,"left_children":[1,3,5,-1,-1,7,9,-1,-1,11,13,-1,-1,-1,-1],"loss_changes":[4.7032478E-1,1.1012885E-1,5.972306E-1,0E0,0E0,2.6283488E-1,5.1573384E-1,0E0,0E0,5.994715E-1,2.7357483E-1,0E0,0E0,0E0,0E0],"parents":[2147483647,0,0,1,1,2,2,5,5,6,6,9,9,10,10],"right_children":[2,4,6,-1,-1,8,10,-1,-1,12,14,-1,-1,-1,-1],"split_conditions":[2.2150567E-2,1.8252257E-2,4.0972263E-2,1.5322221E-2,1.4974128E-1,1.5754433E-1,1.2938225E-1,1.4435549E-1,-2.1214053E-2,1.6713075E-2,1.2594356E-1,-1.869283E-1,3.7224952E-2,8.972246E-2,-5.7774168E-2],"split_indices":[1346,1724,1516,0,0,2095,2026,0,0,362,1502,0,0,0,0],"split_type":[0,0,0,0,0,0,0,0,0,0,0,0,0,0,0],"sum_hessian":[1.09490595E1,2.174504E0,8.774555E0,1.0889761E0,1.0855279E0,2.2717688E0,6.5027866E0,1.2313174E0,1.0404513E0,3.8373303E0,2.665456E0,2.7360675E0,1.1012629E0,1.5139856E0,1.1514704E0],"tree_param":{"num_deleted":"0","num_feature":"3120","num_nodes":"15","size_leaf_vector":"1"}},{"base_weights":[3.5486806E-2,-1.2040263E-1,1.1820469E-1,-9.7709775E-2,2.2794364E-1,3.2805726E-1,-8.059894E-2,4.4886643E-1,-3.9522026E-2,4.1524502E-3,5.4072183E-1,6.1448485E-2,1.9321714E-1],"categories":[],"categories_nodes":[],"categories_segments":[],"categories_sizes":[],"default_left":[0,0,0,0,0,1,0,0,0,0,1,0,0],"id":19,"left_children":[1,-1,3,-1,5,7,-1,9,-1,-1,11,-1,-1],"loss_changes":[4.5758817E-1,0E0,5.767784E-1,0E0,5.286137E-1,4.9371052E-1,0E0,2.491554E-1,0E0,0E0,5.1226497E-2,0E0,0E0],"parents":[2147483647,0,0,2,2,4,4,5,5,7,7,10,10],"right_children":[2,-1,4,-1,6,8,-1,10,-1,-1,12,-1,-1],"split_conditions":[6.844963E-2,-1.2040263E-1,5.18238E-2,-9.7709775E-2,7.273944E-2,4.0564045E-2,-8.059894E-2,1.8249252E-1,-3.9522026E-2,4.1524502E-3,8.004306E-3,6.1448485E-2,1.9321714E-1],"split_indices":[2697,0,2129,0,3011,2171,0,950,0,0,3064,0,0],"split_type":[0,0,0,0,0,0,0,0,0,0,0,0,0],"sum_hessian":[1.035088E1,1.034707E0,9.316173E0,1.4565105E0,7.859662E0,6.8234816E0,1.0361801E0,5.4225187E0,1.400963E0,1.1459615E0,4.2765574E0,1.7077266E0,2.5688307E0],"tree_param":{"num_deleted":"0","num_feature":"3120","num_nodes":"13","size_leaf_vector":"1"}},{"base_weights":[2.074817E-2,1.0287688E-1,-7.373537E-2,8.6607546E-2,-1.7136048E-1,-3.006465E-1,4.9810965E-2,-4.6583605E-1,5.0859336E-2,-1.7905664E-1,-1.9133311E-3],"categories":[],"categories_nodes":[],"categories_segments":[],"categories_sizes":[],"default_left":[0,0,0,0,1,1,0,1,0,0,0],"id":20,"left_children":[1,-1,3,-1,5,7,-1,9,-1,-1,-1],"loss_changes":[3.5536063E-1,0E0,3.7525076E-1,0E0,3.9370036E-1,5.49148E-1,0E0,2.8192627E-1,0E0,0E0,0E0],"parents":[2147483647,0,0,2,2,4,4,5,5,7,7],"right_children":[2,-1,4,-1,6,8,-1,10,-1,-1,-1],"split_conditions":[5.8157776E-2,1.0287688E-1,1.9871837E-2,8.6607546E-2,6.0455192E-2,2.8315693E-2,4.9810965E-2,4.2495556E-2,5.0859336E-2,-1.7905664E-1,-1.9133311E-3],"split_indices":[2095,0,1346,0,1409,977,0,2183,0,0,0],"split_type":[0,0,0,0,0,0,0,0,0,0,0],"sum_hessian":[9.8433895E0,1.6358702E0,8.20752E0,1.3263564E0,6.8811636E0,5.053611E0,1.8275527E0,3.7465525E0,1.3070583E0,2.682552E0,1.0640002E0],"tree_param":{"num_deleted":"0","num_feature":"3120","num_nodes":"11","size_leaf_vector":"1"}},{"base_weights":[2.35705E-2,-9.114395E-2,1.0866788E-1,2.0599492E-1,-8.666689E-2,-5.0346192E-2,3.1114462E-1,4.0875933E-1,-2.3047403E-2,1.6169214E-1,6.5249824E-3],"categories":[],"categories_nodes":[],"categories_segments":[],"categories_sizes":[],"default_left":[0,0,1,1,0,0,1,0,0,0,0],"id":21,"left_children":[1,-1,3,5,-1,-1,7,9,-1,-1,-1],"loss_changes":[3.231249E-1,0E0,4.0780753E-1,3.593975E-1,0E0,0E0,2.7566326E-1,2.5593984E-1,0E0,0E0,0E0],"parents":[2147483647,0,0,2,2,3,3,6,6,7,7],"right_children":[2,-1,4,6,-1,-1,8,10,-1,-1,-1],"split_conditions":[1.3635267E-1,-9.114395E-2,4.078226E-2,9.905623E-3,-8.666689E-2,-5.0346192E-2,2.3145242E-2,6.999007E-2,-2.3047403E-2,1.6169214E-1,6.5249824E-3],"split_indices":[521,0,1010,3011,0,0,1724,1346,0,0,0],"split_type":[0,0,0,0,0,0,0,0,0,0,0],"sum_hessian":[9.413333E0,1.411784E0,8.001549E0,6.8150005E0,1.1865485E0,1.3652855E0,5.449715E0,4.3113694E0,1.1383457E0,2.932146E0,1.3792232E0],"tree_param":{"num_deleted":"0","num_feature":"3120","num_nodes":"11","size_leaf_vector":"1"}},{"base_weights":[1.0395617E-2,-8.556044E-2,1.1374461E-1,-8.5503586E-2,2.0992143E-1,3.9642528E-1,-4.985013E-2,1.6501248E-1,1.122375E-2,6.365546E-2,-1.1142901E-1],"categories":[],"categories_nodes":[],"categories_segments":[],"categories_sizes":[],"default_left":[0,0,0,0,0,0,1,0,0,0,0],"id":22,"left_children":[1,-1,3,-1,5,7,9,-1,-1,-1,-1],"loss_changes":[3.394715E-1,0E0,3.7283525E-1,0E0,3.6623782E-1,2.151596E-1,4.055055E-1,0E0,0E0,0E0,0E0],"parents":[2147483647,0,0,2,2,4,4,5,5,6,6],"right_children":[2,-1,4,-1,6,8,10,-1,-1,-1,-1],"split_conditions":[4.167168E-1,-8.556044E-2,5.4497868E-2,-8.5503586E-2,1.15757264E-1,1.12749204E-1,2.491225E-2,1.6501248E-1,1.122375E-2,6.365546E-2,-1.1142901E-1],"split_indices":[2809,0,2129,0,1313,1868,1346,0,0,0,0],"split_type":[0,0,0,0,0,0,0,0,0,0,0],"sum_hessian":[9.050239E0,1.888678E0,7.161561E0,1.0101179E0,6.151443E0,3.274472E0,2.8769712E0,1.9205866E0,1.3538854E0,1.772695E0,1.1042763E0],"tree_param":{"num_deleted":"0","num_feature":"3120","num_nodes":"11","size_leaf_vector":"1"}},{"base_weights":[4.0698727E-3,7.989325E-2,-9.881582E-2,-1.9690359E-1,7.893714E-2,-3.0556393E-1,6.142843E-2,1.0540601E-2,-3.882471E-1,-1.6406295E-1,-1.8167835E-2],"categories":[],"categories_nodes":[],"categories_segments":[],"categories_sizes":[],"default_left":[0,0,1,1,0,0,0,0,0,0,0],"id":23,"left_children":[1,-1,3,5,-1,7,-1,-1,9,-1,-1],"loss_changes":[2.8746226E-1,0E0,3.2449904E-1,3.5128865E-1,0E0,1.716165E-1,0E0,0E0,2.0577091E-1,0E0,0E0],"parents":[2147483647,0,0,2,2,3,3,5,5,8,8],"right_children":[2,-1,4,6,-1,8,-1,-1,10,-1,-1],"split_conditions":[4.8236594E-2,7.989325E-2,1.0320139E-1,7.188025E-2,7.893714E-2,9.029134E-2,6.142843E-2,1.0540601E-2,6.0816947E-2,-1.6406295E-1,-1.8167835E-2],"split_indices":[1116,0,2192,1309,0,2979,0,0,2233,0,0],"split_type":[0,0,0,0,0,0,0,0,0,0,0],"sum_hessian":[8.678961E0,1.9979804E0,6.6809807E0,5.6152043E0,1.0657766E0,4.607908E0,1.0072963E0,1.0121922E0,3.5957158E0,1.972135E0,1.6235808E0],"tree_param":{"num_deleted":"0","num_feature":"3120","num_nodes":"11","size_leaf_vector":"1"}},{"base_weights":[6.6751903E-3,2.463538E-1,-1.02323815E-1,1.3425009E-1,-2.8327137E-2,1.5279649E-1,-3.5088196E-1,-1.6013576E-2,9.06638E-2,-1.4861412E-1,9.910718E-3],"categories":[],"categories_nodes":[],"categories_segments":[],"categories_sizes":[],"default_left":[0,0,1,0,0,1,1,0,0,0,0],"id":24,"left_children":[1,3,5,-1,-1,7,9,-1,-1,-1,-1],"loss_changes":[2.698932E-1,2.630661E-1,5.0667435E-1,0E0,0E0,1.4620778E-1,2.3395404E-1,0E0,0E0,0E0,0E0],"parents":[2147483647,0,0,1,1,2,2,5,5,6,6],"right_children":[2,4,6,-1,-1,8,10,-1,-1,-1,-1],"split_conditions":[4.0972263E-2,1.7178404E-1,2.4439234E-2,1.3425009E-1,-2.8327137E-2,1.588627E-2,2.1827897E-2,-1.6013576E-2,9.06638E-2,-1.4861412E-1,9.910718E-3],"split_indices":[1516,2095,1346,0,0,1502,362,0,0,0,0],"split_type":[0,0,0,0,0,0,0,0,0,0,0],"sum_hessian":[8.366042E0,2.2213514E0,6.144691E0,1.1999173E0,1.0214341E0,3.2224424E0,2.9222488E0,1.6241192E0,1.5983231E0,1.9122057E0,1.0100433E0],"tree_param":{"num_deleted":"0","num_feature":"3120","num_nodes":"11","size_leaf_vector":"1"}},{"base_weights":[9.111932E-3,8.0046296E-2,-8.772548E-2,2.0302938E-1,-2.4489011E-1,1.0909869E-1,-1.9558877E-2,2.5769671E-2,-1.5447366E-1,-5.830043E-2,6.283878E-2],"categories":[],"categories_nodes":[],"categories_segments":[],"categories_sizes":[],"default_left":[0,0,0,0,1,0,0,1,0,0,0],"id":25,"left_children":[1,-1,3,5,7,-1,-1,9,-1,-1,-1],"loss_changes":[2.4903093E-1,0E0,3.8440633E-1,1.5799075E-1,3.9385748E-1,0E0,0E0,1.8436089E-1,0E0,0E0,0E0],"parents":[2147483647,0,0,2,2,3,3,4,4,7,7],"right_children":[2,-1,4,6,8,-1,-1,10,-1,-1,-1],"split_conditions":[3.3416137E-2,8.0046296E-2,6.4091586E-2,1.7971517E-1,2.4439234E-2,1.0909869E-1,-1.9558877E-2,1.588627E-2,-1.5447366E-1,-5.830043E-2,6.283878E-2],"split_indices":[873,0,1516,2095,1346,0,0,1502,0,0,0],"split_type":[0,0,0,0,0,0,0,0,0,0,0],"sum_hessian":[8.040915E0,1.716779E0,6.324136E0,2.1165984E0,4.2075377E0,1.1012706E0,1.0153278E0,2.5530365E0,1.6545011E0,1.1350567E0,1.4179798E0],"tree_param":{"num_deleted":"0","num_feature":"3120","num_nodes":"11","size_leaf_vector":"1"}},{"base_weights":[7.962179E-3,-8.5688114E-2,8.7308966E-2,1.7579718E-1,-6.5130875E-2,2.9584238E-1,-2.5575504E-2,-2.7622396E-2,4.3779397E-1,1.5370971E-1,4.476981E-2],"categories":[],"categories_nodes":[],"categories_segments":[],"categories_sizes":[],"default_left":[0,0,1,0,0,0,0,0,0,0,0],"id":26,"left_children":[1,-1,3,5,-1,7,-1,-1,9,-1,-1],"loss_changes":[2.2821026E-1,0E0,2.438351E-1,2.279193E-1,0E0,2.9660687E-1,0E0,0E0,6.017685E-4,0E0,0E0],"parents":[2147483647,0,0,2,2,3,3,5,5,8,8],"right_children":[2,-1,4,6,-1,8,-1,-1,10,-1,-1],"split_conditions":[4.5508113E-2,-8.5688114E-2,3.757318E-2,1.07789256E-1,-6.5130875E-2,1.5657367E-2,-2.5575504E-2,-2.7622396E-2,5.8295213E-2,1.5370971E-1,4.476981E-2],"split_indices":[950,0,2896,2679,0,2640,0,0,1346,0,0],"split_type":[0,0,0,0,0,0,0,0,0,0,0],"sum_hessian":[7.7258773E0,1.0906518E0,6.635226E0,5.4681997E0,1.167026E0,3.6544096E0,1.8137901E0,1.0731459E0,2.5812638E0,1.4348695E0,1.1463943E0],"tree_param":{"num_deleted":"0","num_feature":"3120","num_nodes":"11","size_leaf_vector":"1"}},{"base_weights":[6.082389E-3,9.404379E-2,-8.010097E-2,-7.298357E-2,1.9789882E-1,3.5624823E-1,-3.7260573E-2,1.3497475E-1,1.7678734E-2],"categories":[],"categories_nodes":[],"categories_segments":[],"categories_sizes":[],"default_left":[1,0,0,0,0,1,0,0,0],"id":27,"left_children":[1,3,-1,-1,5,7,-1,-1,-1],"loss_changes":[2.2922003E-1,2.992068E-1,0E0,0E0,3.518508E-1,9.3286514E-2,0E0,0E0,0E0],"parents":[2147483647,0,0,1,1,4,4,5,5],"right_children":[2,4,-1,-1,6,8,-1,-1,-1],"split_conditions":[3.68232E-2,4.2527597E-2,-8.010097E-2,-7.298357E-2,6.999007E-2,5.005682E-2,-3.7260573E-2,1.3497475E-1,1.7678734E-2],"split_indices":[3028,1417,0,0,1346,1473,0,0,0],"split_type":[0,0,0,0,0,0,0,0,0],"sum_hessian":[7.4971523E0,6.166527E0,1.3306253E0,1.1356006E0,5.030926E0,3.301732E0,1.7291943E0,2.120459E0,1.1812729E0],"tree_param":{"num_deleted":"0","num_feature":"3120","num_nodes":"9","size_leaf_vector":"1"}},{"base_weights":[6.07113E-4,7.1198635E-2,-9.579832E-2,-2.6550144E-1,9.159511E-2,9.260809E-3,-1.2196248E-1,7.999769E-2,-5.9649996E-2],"categories":[],"categories_nodes":[],"categories_segments":[],"categories_sizes":[],"default_left":[0,0,0,0,1,0,0,0,0],"id":28,"left_children":[1,-1,3,5,7,-1,-1,-1,-1],"loss_changes":[2.1170266E-1,0E0,2.3409405E-1,1.6796759E-1,2.5020885E-1,0E0,0E0,0E0,0E0],"parents":[2147483647,0,0,2,2,3,3,4,4],"right_children":[2,-1,4,6,8,-1,-1,-1,-1],"split_conditions":[4.62378E-2,7.1198635E-2,3.087812E-1,2.9453153E-2,4.452809E-2,9.260809E-3,-1.2196248E-1,7.999769E-2,-5.9649996E-2],"split_indices":[295,0,1867,865,2180,0,0,0,0],"split_type":[0,0,0,0,0,0,0,0,0],"sum_hessian":[7.2803054E0,1.6838547E0,5.596451E0,2.7181165E0,2.878334E0,1.128308E0,1.5898085E0,1.8469039E0,1.0314301E0],"tree_param":{"num_deleted":"0","num_feature":"3120","num_nodes":"9","size_leaf_vector":"1"}},{"base_weights":[-2.6698967E-3,7.340789E-2,-7.6660834E-2,9.88573E-2,-4.8604432E-2,1.5194541E-1,-9.198454E-2,9.964966E-2,-4.069275E-2],"categories":[],"categories_nodes":[],"categories_segments":[],"categories_sizes":[],"default_left":[1,0,0,0,1,0,0,0,0],"id":29,"left_children":[1,3,-1,-1,5,7,-1,-1,-1],"loss_changes":[1.7417054E-1,2.3435658E-1,0E0,0E0,3.3656007E-1,2.4313286E-1,0E0,0E0,0E0],"parents":[2147483647,0,0,1,1,4,4,5,5],"right_children":[2,4,-1,-1,6,8,-1,-1,-1],"split_conditions":[4.8709325E-2,4.0972263E-2,-7.6660834E-2,9.88573E-2,6.7525203E-3,1.0367824E-1,-9.198454E-2,9.964966E-2,-4.069275E-2],"split_indices":[991,1516,0,0,1055,2679,0,0,0],"split_type":[0,0,0,0,0,0,0,0,0],"sum_hessian":[7.078604E0,5.987032E0,1.0915724E0,1.3830731E0,4.6039586E0,2.821734E0,1.7822248E0,1.6393884E0,1.1823455E0],"tree_param":{"num_deleted":"0","num_feature":"3120","num_nodes":"9","size_leaf_vector":"1"}},{"base_weights":[-3.0821601E-3,-8.563541E-2,7.168994E-2,6.1126392E-2,-1.9429561E-1,-3.8452858E-1,4.431446E-2,-1.468765E-1,-2.8480714E-2],"categories":[],"categories_nodes":[],"categories_segments":[],"categories_sizes":[],"default_left":[1,0,0,0,0,1,0,0,0],"id":30,"left_children":[1,3,-1,-1,5,7,-1,-1,-1],"loss_changes":[1.7743105E-1,2.4693286E-1,0E0,0E0,4.0199977E-1,6.569278E-2,0E0,0E0,0E0],"parents":[2147483647,0,0,1,1,4,4,5,5],"right_children":[2,4,-1,-1,6,8,-1,-1,-1],"split_conditions":[1.914811E-2,6.0032543E-2,7.168994E-2,6.1126392E-2,9.040292E-2,1.6255746E-2,4.431446E-2,-1.468765E-1,-2.8480714E-2],"split_indices":[2991,2456,0,0,1548,1502,0,0,0],"split_type":[0,0,0,0,0,0,0,0,0],"sum_hessian":[6.855462E0,5.593832E0,1.26163E0,1.28811E0,4.305722E0,2.6868982E0,1.618824E0,1.4648609E0,1.2220373E0],"tree_param":{"num_deleted":"0","num_feature":"3120","num_nodes":"9","size_leaf_vector":"1"}},{"base_weights":[-3.149545E-3,-7.489854E-2,7.197848E-2,1.1399566E-1,-6.251153E-2,-2.4193093E-1,1.2473881E-1,-5.093946E-3,-1.0363037E-1,8.5319094E-2,-2.2495424E-2],"categories":[],"categories_nodes":[],"categories_segments":[],"categories_sizes":[],"default_left":[0,0,0,0,0,1,0,0,0,0,0],"id":31,"left_children":[1,-1,3,-1,5,7,9,-1,-1,-1,-1],"loss_changes":[1.594901E-1,0E0,2.9850996E-1,0E0,2.1413825E-1,6.7161664E-2,1.2780206E-1,0E0,0E0,0E0,0E0],"parents":[2147483647,0,0,2,2,4,4,5,5,6,6],"right_children":[2,-1,4,-1,6,8,10,-1,-1,-1,-1],"split_conditions":[5.5883687E-2,-7.489854E-2,6.6584066E-2,1.1399566E-1,6.830775E-2,2.272819E-2,1.2187356E-1,-5.093946E-3,-1.0363037E-1,8.5319094E-2,-2.2495424E-2],"split_indices":[2129,0,2456,0,453,1473,2994,0,0,0,0],"split_type":[0,0,0,0,0,0,0,0,0,0,0],"sum_hessian":[6.6414676E0,1.0086627E0,5.632805E0,1.1572067E0,4.4755983E0,2.136464E0,2.3391342E0,1.0400678E0,1.0963962E0,1.0643468E0,1.2747874E0],"tree_param":{"num_deleted":"0","num_feature":"3120","num_nodes":"11","size_leaf_vector":"1"}},{"base_weights":[-2.9820614E-3,5.4766946E-2,-9.9776715E-2,-9.2705175E-2,3.5558924E-2,1.8663909E-1,-5.9177157E-2,-1.3949913E-2,1.0077948E-1],"categories":[],"categories_nodes":[],"categories_segments":[],"categories_sizes":[],"default_left":[0,0,0,0,1,0,0,0,0],"id":32,"left_children":[1,-1,3,-1,5,7,-1,-1,-1],"loss_changes":[1.5179385E-1,0E0,1.677134E-1,0E0,1.8657199E-1,1.233752E-1,0E0,0E0,0E0],"parents":[2147483647,0,0,2,2,4,4,5,5],"right_children":[2,-1,4,-1,6,8,-1,-1,-1],"split_conditions":[1.3711089E-1,5.4766946E-2,1.0968412E-1,-9.2705175E-2,1.1097663E-1,3.9239645E-2,-5.9177157E-2,-1.3949913E-2,1.0077948E-1],"split_indices":[2095,0,2192,0,2679,2640,0,0,0],"split_type":[0,0,0,0,0,0,0,0,0],"sum_hessian":[6.437939E0,1.9034116E0,4.5345273E0,1.2769357E0,3.2575917E0,2.0958705E0,1.1617213E0,1.086968E0,1.0089025E0],"tree_param":{"num_deleted":"0","num_feature":"3120","num_nodes":"9","size_leaf_vector":"1"}},{"base_weights":[-3.5135064E-3,5.8460385E-2,-9.6564285E-2,-2.1868446E-1,5.5361252E-2,1.9369526E-2,-3.5067618E-1,-4.9778973E-3,-1.5021317E-1],"categories":[],"categories_nodes":[],"categories_segments":[],"categories_sizes":[],"default_left":[0,0,1,1,0,0,0,0,0],"id":33,"left_children":[1,-1,3,5,-1,-1,7,-1,-1],"loss_changes":[1.5330969E-1,0E0,2.3356085E-1,1.8644266E-1,0E0,0E0,1.4928669E-1,0E0,0E0],"parents":[2147483647,0,0,2,2,3,3,6,6],"right_children":[2,-1,4,6,-1,-1,8,-1,-1],"split_conditions":[2.491225E-2,5.8460385E-2,7.978266E-3,2.0927558E-2,5.5361252E-2,1.9369526E-2,7.211789E-2,-4.9778973E-3,-1.5021317E-1],"split_indices":[1346,0,2824,1548,0,0,2180,0,0],"split_type":[0,0,0,0,0,0,0,0,0],"sum_hessian":[6.28579E0,1.6576084E0,4.628182E0,3.3812828E0,1.2468989E0,1.2371795E0,2.1441033E0,1.0086734E0,1.1354299E0],"tree_param":{"num_deleted":"0","num_feature":"3120","num_nodes":"9","size_leaf_vector":"1"}},{"base_weights":[-6.786783E-3,6.061981E-2,-9.4121404E-2,-1.8904667E-1,5.1269326E-2,3.1450294E-2,-1.1436065E-1,5.7332136E-2,-4.527977E-2],"categories":[],"categories_nodes":[],"categories_segments":[],"categories_sizes":[],"default_left":[0,0,1,1,0,0,0,0,0],"id":34,"left_children":[1,-1,3,5,-1,7,-1,-1,-1],"loss_changes":[1.4886042E-1,0E0,1.7574617E-1,2.0997612E-1,0E0,1.1910461E-1,0E0,0E0,0E0],"parents":[2147483647,0,0,2,2,3,3,5,5],"right_children":[2,-1,4,6,-1,8,-1,-1,-1],"split_conditions":[4.62378E-2,6.061981E-2,3.3711463E-2,5.7966E-2,5.1269326E-2,7.561355E-2,-1.1436065E-1,5.7332136E-2,-4.527977E-2],"split_indices":[295,0,2183,2727,0,2679,0,0,0],"split_type":[0,0,0,0,0,0,0,0,0],"sum_hessian":[6.118483E0,1.4167515E0,4.701731E0,3.6728487E0,1.0288827E0,2.099741E0,1.5731077E0,1.0941201E0,1.0056207E0],"tree_param":{"num_deleted":"0","num_feature":"3120","num_nodes":"9","size_leaf_vector":"1"}},{"base_weights":[-4.047256E-3,5.2123263E-2,-1.0555512E-1,1.1126426E-1,-1.00258216E-1,-1.3841077E-2,7.1899705E-2],"categories":[],"categories_nodes":[],"categories_segments":[],"categories_sizes":[],"default_left":[0,0,1,1,0,0,0],"id":35,"left_children":[1,-1,3,5,-1,-1,-1],"loss_changes":[1.4396206E-1,0E0,2.8767952E-1,7.8636974E-2,0E0,0E0,0E0],"parents":[2147483647,0,0,2,2,3,3],"right_children":[2,-1,4,6,-1,-1,-1],"split_conditions":[6.4091586E-2,5.2123263E-2,2.4439234E-2,1.3889839E-2,-1.00258216E-1,-1.3841077E-2,7.1899705E-2],"split_indices":[1516,0,1346,2287,0,0,0],"split_type":[0,0,0,0,0,0,0],"sum_hessian":[5.960762E0,1.9077306E0,4.0530314E0,2.343778E0,1.7092534E0,1.3408167E0,1.0029612E0],"tree_param":{"num_deleted":"0","num_feature":"3120","num_nodes":"7","size_leaf_vector":"1"}},{"base_weights":[-1.7762017E-3,-8.219883E-2,6.5340616E-2,4.8551414E-2,-1.7166923E-1,3.3550505E-2,-2.8893834E-1,-1.2688953E-1,7.4980906E-3],"categories":[],"categories_nodes":[],"categories_segments":[],"categories_sizes":[],"default_left":[1,0,0,0,0,0,0,0,0],"id":36,"left_children":[1,3,-1,-1,5,-1,7,-1,-1],"loss_changes":[1.3863407E-1,1.5289214E-1,0E0,0E0,1.8784213E-1,0E0,1.6154954E-1,0E0,0E0],"parents":[2147483647,0,0,1,1,4,4,6,6],"right_children":[2,4,-1,-1,6,-1,8,-1,-1],"split_conditions":[8.60019E-2,4.8236594E-2,6.5340616E-2,4.8551414E-2,4.059326E-2,3.3550505E-2,1.5378648E-1,-1.2688953E-1,7.4980906E-3],"split_indices":[2192,1116,0,0,948,0,2026,0,0],"split_type":[0,0,0,0,0,0,0,0,0],"sum_hessian":[5.836774E0,4.730013E0,1.1067611E0,1.0519365E0,3.6780763E0,1.0897902E0,2.588286E0,1.5704857E0,1.0178003E0],"tree_param":{"num_deleted":"0","num_feature":"3120","num_nodes":"9","size_leaf_vector":"1"}},{"base_weights":[2.035191E-3,6.1312344E-2,-7.992179E-2,4.840474E-2,-2.0929585E-1,-1.00165404E-1,2.2298666E-2],"categories":[],"categories_nodes":[],"categories_segments":[],"categories_sizes":[],"default_left":[0,0,0,0,1,0,0],"id":37,"left_children":[1,-1,3,-1,5,-1,-1],"loss_changes":[1.2714742E-1,0E0,2.046614E-1,0E0,1.6613272E-1,0E0,0E0],"parents":[2147483647,0,0,2,2,4,4],"right_children":[2,-1,4,-1,6,-1,-1],"split_conditions":[3.3416137E-2,6.1312344E-2,6.4091586E-2,4.840474E-2,4.2635158E-2,-1.00165404E-1,2.2298666E-2],"split_indices":[873,0,1516,0,3011,0,0],"split_type":[0,0,0,0,0,0,0],"sum_hessian":[5.6823044E0,1.2074975E0,4.474807E0,1.4756678E0,2.999139E0,1.9606652E0,1.0384738E0],"tree_param":{"num_deleted":"0","num_feature":"3120","num_nodes":"7","size_leaf_vector":"1"}},{"base_weights":[5.831093E-3,-5.686331E-2,7.922841E-2,8.430725E-2,-6.939208E-2,-8.30884E-2,4.2013176E-2],"categories":[],"categories_nodes":[],"categories_segments":[],"categories_sizes":[],"default_left":[0,0,0,0,0,0,0],"id":38,"left_children":[1,-1,3,-1,5,-1,-1],"loss_changes":[1.09124444E-1,0E0,1.8372092E-1,0E0,2.1073157E-1,0E0,0E0],"parents":[2147483647,0,0,2,2,4,4],"right_children":[2,-1,4,-1,6,-1,-1],"split_conditions":[5.64452E-2,-5.686331E-2,2.3856112E-1,8.430725E-2,3.087812E-1,-8.30884E-2,4.2013176E-2],"split_indices":[1417,0,2456,0,1867,0,0],"split_type":[0,0,0,0,0,0,0],"sum_hessian":[5.5625463E0,1.0868992E0,4.475647E0,1.5203897E0,2.9552574E0,1.3223141E0,1.6329434E0],"tree_param":{"num_deleted":"0","num_feature":"3120","num_nodes":"7","size_leaf_vector":"1"}},{"base_weights":[2.024908E-3,-7.2539456E-2,5.979742E-2,4.144291E-2,-1.6815239E-1,2.4193285E-2,-8.869582E-2],"categories":[],"categories_nodes":[],"categories_segments":[],"categories_sizes":[],"default_left":[1,0,0,0,0,0,0],"id":39,"left_children":[1,3,-1,-1,5,-1,-1],"loss_changes":[1.09233044E-1,1.3217664E-1,0E0,0E0,1.561589E-1,0E0,0E0],"parents":[2147483647,0,0,1,1,4,4],"right_children":[2,4,-1,-1,6,-1,-1],"split_conditions":[8.60019E-2,4.287369E-2,5.979742E-2,4.144291E-2,3.514331E-2,2.4193285E-2,-8.869582E-2],"split_indices":[2192,1167,0,0,1313,0,0],"split_type":[0,0,0,0,0,0,0],"sum_hessian":[5.4421644E0,4.4084454E0,1.0337191E0,1.2372838E0,3.171162E0,1.1990004E0,1.9721614E0],"tree_param":{"num_deleted":"0","num_feature":"3120","num_nodes":"7","size_leaf_vector":"1"}},{"base_weights":[6.900319E-3,1.099292E-1,-1.2780873E-1,7.5009204E-2,-3.0401869E-2,-8.598182E-2,3.2009088E-2],"categories":[],"categories_nodes":[],"categories_segments":[],"categories_sizes":[],"default_left":[1,1,0,0,0,0,0],"id":40,"left_children":[1,3,5,-1,-1,-1,-1],"loss_changes":[1.0210892E-1,1.4766346E-1,1.5019326E-1,0E0,0E0,0E0,0E0],"parents":[2147483647,0,0,1,1,2,2],"right_children":[2,4,6,-1,-1,-1,-1],"split_conditions":[6.7525203E-3,5.9226736E-2,7.689986E-2,7.5009204E-2,-3.0401869E-2,-8.598182E-2,3.2009088E-2],"split_indices":[1055,2180,1473,0,0,0,0],"split_type":[0,0,0,0,0,0,0],"sum_hessian":[5.3448014E0,3.132748E0,2.2120535E0,1.7733144E0,1.3594337E0,1.1864611E0,1.0255924E0],"tree_param":{"num_deleted":"0","num_feature":"3120","num_nodes":"7","size_leaf_vector":"1"}},{"base_weights":[3.324723E-3,1.01429716E-1,-4.193747E-2,2.1244545E-1,-3.692423E-2,9.78163E-2,-1.1952893E-3],"categories":[],"categories_nodes":[],"categories_segments":[],"categories_sizes":[],"default_left":[0,1,0,0,0,0,0],"id":41,"left_children":[1,3,-1,5,-1,-1,-1],"loss_changes":[1.0195863E-1,1.3304217E-1,0E0,8.088106E-2,0E0,0E0,0E0],"parents":[2147483647,0,0,1,1,3,3],"right_children":[2,4,-1,6,-1,-1,-1],"split_conditions":[6.965732E-2,4.5541305E-2,-4.193747E-2,8.286535E-2,-3.692423E-2,9.78163E-2,-1.1952893E-3],"split_indices":[1346,2897,0,2372,0,0,0],"split_type":[0,0,0,0,0,0,0],"sum_hessian":[5.2519207E0,3.2887728E0,1.963148E0,2.2365732E0,1.0521995E0,1.134523E0,1.1020503E0],"tree_param":{"num_deleted":"0","num_feature":"3120","num_nodes":"7","size_leaf_vector":"1"}},{"base_weights":[5.6086266E-3,-7.9672284E-2,4.629986E-2,4.4637453E-2,-1.8617822E-1,1.3640492E-2,-1.00748144E-1],"categories":[],"categories_nodes":[],"categories_segments":[],"categories_sizes":[],"default_left":[0,0,0,0,0,0,0],"id":42,"left_children":[1,3,-1,-1,5,-1,-1],"loss_changes":[9.0598784E-2,1.3922513E-1,0E0,0E0,1.3903199E-1,0E0,0E0],"parents":[2147483647,0,0,1,1,4,4],"right_children":[2,4,-1,-1,6,-1,-1],"split_conditions":[1.6416544E-1,3.3416137E-2,4.629986E-2,4.4637453E-2,1.0697953E-1,1.3640492E-2,-1.00748144E-1],"split_indices":[2026,873,0,0,1516,0,0],"split_type":[0,0,0,0,0,0,0],"sum_hessian":[5.173669E0,3.5832624E0,1.5904063E0,1.0130861E0,2.5701764E0,1.281958E0,1.2882185E0],"tree_param":{"num_deleted":"0","num_feature":"3120","num_nodes":"7","size_leaf_vector":"1"}},{"base_weights":[4.168157E-3,-9.391003E-2,4.198425E-2,-2.2926441E-1,4.4051412E-2,-4.4410164E-3,-9.887894E-2],"categories":[],"categories_nodes":[],"categories_segments":[],"categories_sizes":[],"default_left":[1,1,0,1,0,0,0],"id":43,"left_children":[1,3,-1,5,-1,-1,-1],"loss_changes":[9.418815E-2,1.6830933E-1,0E0,6.043297E-2,0E0,0E0,0E0],"parents":[2147483647,0,0,1,1,3,3],"right_children":[2,4,-1,6,-1,-1,-1],"split_conditions":[1.784439E-2,1.1226405E-2,4.198425E-2,1.0613181E-2,4.4051412E-2,-4.4410164E-3,-9.887894E-2],"split_indices":[2994,1167,0,453,0,0,0],"split_type":[0,0,0,0,0,0,0],"sum_hessian":[5.0858846E0,3.1319382E0,1.9539465E0,2.035328E0,1.0966104E0,1.0144571E0,1.0208707E0],"tree_param":{"num_deleted":"0","num_feature":"3120","num_nodes":"7","size_leaf_vector":"1"}},{"base_weights":[-2.9262173E-4,5.3248316E-2,-7.704316E-2,-7.062681E-2,4.922018E-2,-3.8828656E-2,5.2528147E-2],"categories":[],"categories_nodes":[],"categories_segments":[],"categories_sizes":[],"default_left":[0,0,0,0,1,0,0],"id":44,"left_children":[1,-1,3,-1,5,-1,-1],"loss_changes":[9.565411E-2,0E0,1.09448805E-1,0E0,1.0249154E-1,0E0,0E0],"parents":[2147483647,0,0,2,2,4,4],"right_children":[2,-1,4,-1,6,-1,-1],"split_conditions":[4.62378E-2,5.3248316E-2,3.4472182E-2,-7.062681E-2,2.2402257E-2,-3.8828656E-2,5.2528147E-2],"split_indices":[295,0,1313,0,3011,0,0],"split_type":[0,0,0,0,0,0,0],"sum_hessian":[5.0079064E0,1.1142392E0,3.8936675E0,1.343677E0,2.5499902E0,1.0423571E0,1.5076332E0],"tree_param":{"num_deleted":"0","num_feature":"3120","num_nodes":"7","size_leaf_vector":"1"}},{"base_weights":[-8.9815276E-4,4.9876068E-2,-8.517905E-2,-1.888491E-1,4.322081E-2,1.4268438E-2,-8.955478E-2],"categories":[],"categories_nodes":[],"categories_segments":[],"categories_sizes":[],"default_left":[0,0,1,1,0,0,0],"id":45,"left_children":[1,-1,3,5,-1,-1,-1],"loss_changes":[9.767629E-2,0E0,1.3658631E-1,1.0758196E-1,0E0,0E0,0E0],"parents":[2147483647,0,0,2,2,3,3],"right_children":[2,-1,4,6,-1,-1,-1],"split_conditions":[2.491225E-2,4.9876068E-2,4.7129025E-3,2.0927558E-2,4.322081E-2,1.4268438E-2,-8.955478E-2],"split_indices":[1346,0,2824,1548,0,0,0],"split_type":[0,0,0,0,0,0,0],"sum_hessian":[4.928221E0,1.3259307E0,3.6022902E0,2.6018941E0,1.0003961E0,1.0039568E0,1.5979373E0],"tree_param":{"num_deleted":"0","num_feature":"3120","num_nodes":"7","size_leaf_vector":"1"}},{"base_weights":[2.073726E-3,4.9153544E-2,-8.4321044E-2,-2.016492E-1,4.6451554E-2,5.296985E-3,-1.0767511E-1],"categories":[],"categories_nodes":[],"categories_segments":[],"categories_sizes":[],"default_left":[0,0,1,1,0,0,0],"id":46,"left_children":[1,-1,3,5,-1,-1,-1],"loss_changes":[9.5517084E-2,0E0,1.5667662E-1,1.2476668E-1,0E0,0E0,0E0],"parents":[2147483647,0,0,2,2,3,3],"right_children":[2,-1,4,6,-1,-1,-1],"split_conditions":[1.3711089E-1,4.9153544E-2,6.0455192E-2,1.5364723E-2,4.6451554E-2,5.296985E-3,-1.0767511E-1],"split_indices":[2095,0,1409,258,0,0,0],"split_type":[0,0,0,0,0,0,0],"sum_hessian":[4.845756E0,1.3748755E0,3.4708805E0,2.4337575E0,1.0371231E0,1.3871468E0,1.0466106E0],"tree_param":{"num_deleted":"0","num_feature":"3120","num_nodes":"7","size_leaf_vector":"1"}},{"base_weights":[-1.8516631E-4,7.190137E-2,-5.0410982E-2,1.7177889E-1,-3.4668587E-2,-6.255383E-3,8.251538E-2],"categories":[],"categories_nodes":[],"categories_segments":[],"categories_sizes":[],"default_left":[1,0,0,1,0,0,0],"id":47,"left_children":[1,3,-1,5,-1,-1,-1],"loss_changes":[8.173101E-2,1.08359225E-1,0E0,7.508751E-2,0E0,0E0,0E0],"parents":[2147483647,0,0,1,1,3,3],"right_children":[2,4,-1,6,-1,-1,-1],"split_conditions":[3.018754E-2,6.999007E-2,-5.0410982E-2,1.9131944E-2,-3.4668587E-2,-6.255383E-3,8.251538E-2],"split_indices":[3028,1346,0,3064,0,0,0],"split_type":[0,0,0,0,0,0,0],"sum_hessian":[4.756193E0,3.7271461E0,1.029047E0,2.4862027E0,1.2409433E0,1.1462463E0,1.3399565E0],"tree_param":{"num_deleted":"0","num_feature":"3120","num_nodes":"7","size_leaf_vector":"1"}},{"base_weights":[-1.4574412E-3,-4.6016715E-2,7.6214895E-2,-8.316112E-2,7.682922E-2,-5.782131E-2,2.049328E-2],"categories":[],"categories_nodes":[],"categories_segments":[],"categories_sizes":[],"default_left":[0,0,1,0,0,0,0],"id":48,"left_children":[1,-1,3,5,-1,-1,-1],"loss_changes":[7.884702E-2,0E0,1.4840773E-1,6.471446E-2,0E0,0E0,0E0],"parents":[2147483647,0,0,2,2,3,3],"right_children":[2,-1,4,6,-1,-1,-1],"split_conditions":[2.0175134E-1,-4.6016715E-2,1.9131944E-2,5.2409075E-2,7.682922E-2,-5.782131E-2,2.049328E-2],"split_indices":[950,0,3064,2640,0,0,0],"split_type":[0,0,0,0,0,0,0],"sum_hessian":[4.6908016E0,1.2570724E0,3.433729E0,2.1057367E0,1.3279924E0,1.0637658E0,1.0419708E0],"tree_param":{"num_deleted":"0","num_feature":"3120","num_nodes":"7","size_leaf_vector":"1"}},{"base_weights":[-2.0850366E-3,4.588497E-2,-6.9242686E-2,4.7892377E-2,-7.01589E-2,4.8321996E-2,-3.1711116E-2],"categories":[],"categories_nodes":[],"categories_segments":[],"categories_sizes":[],"default_left":[0,0,1,1,0,0,0],"id":49,"left_children":[1,-1,3,5,-1,-1,-1],"loss_changes":[6.9077015E-2,0E0,1.0005268E-1,7.825717E-2,0E0,0E0,0E0],"parents":[2147483647,0,0,2,2,3,3],"right_children":[2,-1,4,6,-1,-1,-1],"split_conditions":[4.62378E-2,4.588497E-2,3.4747593E-2,2.4439234E-2,-7.01589E-2,4.8321996E-2,-3.1711116E-2],"split_indices":[295,0,2953,1346,0,0,0],"split_type":[0,0,0,0,0,0,0],"sum_hessian":[4.617325E0,1.0094686E0,3.6078563E0,2.522239E0,1.0856174E0,1.4241438E0,1.0980952E0],"tree_param":{"num_deleted":"0","num_feature":"3120","num_nodes":"7","size_leaf_vector":"1"}},{"base_weights":[-2.9435202E-3,3.982069E-2,-8.3745904E-2,2.8299203E-2,-7.330028E-2],"categories":[],"categories_nodes":[],"categories_segments":[],"categories_sizes":[],"default_left":[0,0,1,0,0],"id":50,"left_children":[1,-1,3,-1,-1],"loss_changes":[7.198262E-2,0E0,1.400897E-1,0E0,0E0],"parents":[2147483647,0,0,2,2],"right_children":[2,-1,4,-1,-1],"split_conditions":[6.4091586E-2,3.982069E-2,2.2150567E-2,2.8299203E-2,-7.330028E-2],"split_indices":[1516,0,1346,0,0],"split_type":[0,0,0,0,0],"sum_hessian":[4.5518975E0,1.4591128E0,3.092785E0,1.6621826E0,1.4306024E0],"tree_param":{"num_deleted":"0","num_feature":"3120","num_nodes":"5","size_leaf_vector":"1"}},{"base_weights":[-3.2239323E-3,4.249201E-2,-7.48487E-2,5.230045E-2,-7.068648E-2,6.2551744E-2,-4.394956E-2],"categories":[],"categories_nodes":[],"categories_segments":[],"categories_sizes":[],"default_left":[0,0,1,0,0,0,0],"id":51,"left_children":[1,-1,3,5,-1,-1,-1],"loss_changes":[6.76509E-2,0E0,1.0090809E-1,1.311003E-1,0E0,0E0,0E0],"parents":[2147483647,0,0,2,2,3,3],"right_children":[2,-1,4,6,-1,-1,-1],"split_conditions":[4.361938E-2,4.249201E-2,6.7525203E-3,1.0367824E-1,-7.068648E-2,6.2551744E-2,-4.394956E-2],"split_indices":[2823,0,1055,2679,0,0,0],"split_type":[0,0,0,0,0,0,0],"sum_hessian":[4.498282E0,1.1648326E0,3.3334494E0,2.2381086E0,1.0953407E0,1.2259762E0,1.0121324E0],"tree_param":{"num_deleted":"0","num_feature":"3120","num_nodes":"7","size_leaf_vector":"1"}},{"base_weights":[-4.1154292E-3,4.0505633E-2,-7.779327E-2,-1.6334589E-1,2.8075535E-2,8.222999E-3,-8.359747E-2],"categories":[],"categories_nodes":[],"categories_segments":[],"categories_sizes":[],"default_left":[0,0,1,0,0,0,0],"id":52,"left_children":[1,-1,3,5,-1,-1,-1],"loss_changes":[6.611159E-2,0E0,7.658783E-2,7.6994054E-2,0E0,0E0,0E0],"parents":[2147483647,0,0,2,2,3,3],"right_children":[2,-1,4,6,-1,-1,-1],"split_conditions":[1.3711089E-1,4.0505633E-2,5.570768E-2,8.56933E-2,2.8075535E-2,8.222999E-3,-8.359747E-2],"split_indices":[2095,0,1409,948,0,0,0],"split_type":[0,0,0,0,0,0,0],"sum_hessian":[4.4245877E0,1.2436004E0,3.1809874E0,2.1530488E0,1.0279387E0,1.0983675E0,1.0546813E0],"tree_param":{"num_deleted":"0","num_feature":"3120","num_nodes":"7","size_leaf_vector":"1"}},{"base_weights":[-4.427756E-3,7.714661E-2,-3.6495637E-2,6.6661805E-2,-3.1432234E-2],"categories":[],"categories_nodes":[],"categories_segments":[],"categories_sizes":[],"default_left":[0,1,0,0,0],"id":53,"left_children":[1,3,-1,-1,-1],"loss_changes":[6.0749017E-2,1.2301324E-1,0E0,0E0,0E0],"parents":[2147483647,0,0,1,1],"right_children":[2,4,-1,-1,-1],"split_conditions":[6.999007E-2,3.0415548E-2,-3.6495637E-2,6.6661805E-2,-3.1432234E-2],"split_indices":[1346,2897,0,0,0],"split_type":[0,0,0,0,0],"sum_hessian":[4.3713937E0,2.779251E0,1.5921427E0,1.4230777E0,1.3561734E0],"tree_param":{"num_deleted":"0","num_feature":"3120","num_nodes":"5","size_leaf_vector":"1"}},{"base_weights":[-3.232009E-3,8.4621854E-2,-9.425926E-2,-2.1304851E-2,6.266572E-2,1.7028669E-2,-6.1261993E-2],"categories":[],"categories_nodes":[],"categories_segments":[],"categories_sizes":[],"default_left":[1,1,0,0,0,0,0],"id":54,"left_children":[1,3,5,-1,-1,-1,-1],"loss_changes":[5.057326E-2,7.744726E-2,6.28837E-2,0E0,0E0,0E0,0E0],"parents":[2147483647,0,0,1,1,2,2],"right_children":[2,4,6,-1,-1,-1,-1],"split_conditions":[5.8687244E-2,2.8115785E-2,4.5452457E-2,-2.1304851E-2,6.266572E-2,1.7028669E-2,-6.1261993E-2],"split_indices":[2180,2026,2897,0,0,0,0],"split_type":[0,0,0,0,0,0,0],"sum_hessian":[4.3265424E0,2.2374563E0,2.0890863E0,1.1835672E0,1.053889E0,1.0839404E0,1.0051459E0],"tree_param":{"num_deleted":"0","num_feature":"3120","num_nodes":"7","size_leaf_vector":"1"}},{"base_weights":[-2.8174995E-3,-6.9053896E-2,3.865821E-2,3.4815542E-2,-5.496483E-2],"categories":[],"categories_nodes":[],"categories_segments":[],"categories_sizes":[],"default_left":[0,0,0,0,0],"id":55,"left_children":[1,3,-1,-1,-1],"loss_changes":[5.494818E-2,1.0925428E-1,0E0,0E0,0E0],"parents":[2147483647,0,0,1,1],"right_children":[2,4,-1,-1,-1],"split_conditions":[9.040292E-2,4.287369E-2,3.865821E-2,3.4815542E-2,-5.496483E-2],"split_indices":[1548,1167,0,0,0],"split_type":[0,0,0,0,0],"sum_hessian":[4.279802E0,3.1638944E0,1.1159073E0,1.2006216E0,1.9632728E0],"tree_param":{"num_deleted":"0","num_feature":"3120","num_nodes":"5","size_leaf_vector":"1"}},{"base_weights":[1.4694978E-3,-3.925978E-2,7.0036605E-2,-2.1727312E-2,6.861904E-2],"categories":[],"categories_nodes":[],"categories_segments":[],"categories_sizes":[],"default_left":[0,0,1,0,0],"id":56,"left_children":[1,-1,3,-1,-1],"loss_changes":[5.672227E-2,0E0,1.0934098E-1,0E0,0E0],"parents":[2147483647,0,0,2,2],"right_children":[2,-1,4,-1,-1],"split_conditions":[2.0175134E-1,-3.925978E-2,1.9131944E-2,-2.1727312E-2,6.861904E-2],"split_indices":[950,0,3064,0,0],"split_type":[0,0,0,0,0],"sum_hessian":[4.241085E0,1.137368E0,3.103717E0,1.9219669E0,1.1817503E0],"tree_param":{"num_deleted":"0","num_feature":"3120","num_nodes":"5","size_leaf_vector":"1"}},{"base_weights":[2.6499091E-3,3.2690596E-2,-7.4952446E-2,-4.814881E-2,1.7833281E-2],"categories":[],"categories_nodes":[],"categories_segments":[],"categories_sizes":[],"default_left":[0,0,0,0,0],"id":57,"left_children":[1,-1,3,-1,-1],"loss_changes":[5.105706E-2,0E0,5.0899997E-2,0E0,0E0],"parents":[2147483647,0,0,2,2],"right_children":[2,-1,4,-1,-1],"split_conditions":[7.026993E-2,3.2690596E-2,3.43167E-2,-4.814881E-2,1.7833281E-2],"split_indices":[2372,0,2640,0,0],"split_type":[0,0,0,0,0],"sum_hessian":[4.19837E0,1.600888E0,2.5974817E0,1.4685518E0,1.12893E0],"tree_param":{"num_deleted":"0","num_feature":"3120","num_nodes":"5","size_leaf_vector":"1"}},{"base_weights":[2.270748E-3,3.778033E-2,-6.301528E-2,3.622995E-2,-1.6541293E-1,-8.29423E-2,8.808625E-3],"categories":[],"categories_nodes":[],"categories_segments":[],"categories_sizes":[],"default_left":[0,0,0,0,1,0,0],"id":58,"left_children":[1,-1,3,-1,5,-1,-1],"loss_changes":[4.969066E-2,0E0,9.62181E-2,0E0,7.3527366E-2,0E0,0E0],"parents":[2147483647,0,0,2,2,4,4],"right_children":[2,-1,4,-1,6,-1,-1],"split_conditions":[2.491225E-2,3.778033E-2,6.4091586E-2,3.622995E-2,3.053631E-2,-8.29423E-2,8.808625E-3],"split_indices":[1346,0,1516,0,3011,0,0],"split_type":[0,0,0,0,0,0,0],"sum_hessian":[4.171836E0,1.1204791E0,3.0513568E0,1.0276173E0,2.0237396E0,1.0217049E0,1.0020345E0],"tree_param":{"num_deleted":"0","num_feature":"3120","num_nodes":"7","size_leaf_vector":"1"}},{"base_weights":[1.3045988E-3,6.85043E-2,-4.0359687E-2,-1.9096876E-2,5.4048978E-2],"categories":[],"categories_nodes":[],"categories_segments":[],"categories_sizes":[],"default_left":[1,0,0,0,0],"id":59,"left_children":[1,3,-1,-1,-1],"loss_changes":[5.590524E-2,7.1743995E-2,0E0,0E0,0E0],"parents":[2147483647,0,0,1,1],"right_children":[2,4,-1,-1,-1],"split_conditions":[1.03695765E-2,1.1994217E-1,-4.0359687E-2,-1.9096876E-2,5.4048978E-2],"split_indices":[3028,401,0,0,0],"split_type":[0,0,0,0,0],"sum_hessian":[4.1148314E0,3.0845594E0,1.0302719E0,1.6094749E0,1.4750847E0],"tree_param":{"num_deleted":"0","num_feature":"3120","num_nodes":"5","size_leaf_vector":"1"}},{"base_weights":[-8.75665E-5,3.5560664E-2,-6.729863E-2,-5.959188E-2,2.2149716E-2],"categories":[],"categories_nodes":[],"categories_segments":[],"categories_sizes":[],"default_left":[0,0,0,0,0],"id":60,"left_children":[1,-1,3,-1,-1],"loss_changes":[4.8519015E-2,0E0,8.6656556E-2,0E0,0E0],"parents":[2147483647,0,0,2,2],"right_children":[2,-1,4,-1,-1],"split_conditions":[3.8393375E-2,3.5560664E-2,7.689986E-2,-5.959188E-2,2.2149716E-2],"split_indices":[2003,0,1473,0,0],"split_type":[0,0,0,0,0],"sum_hessian":[4.085015E0,1.2012523E0,2.8837626E0,1.2826265E0,1.601136E0],"tree_param":{"num_deleted":"0","num_feature":"3120","num_nodes":"5","size_leaf_vector":"1"}},{"base_weights":[-5.4246484E-4,7.402108E-2,-3.148357E-2,5.3101644E-2,-2.489951E-2],"categories":[],"categories_nodes":[],"categories_segments":[],"categories_sizes":[],"default_left":[0,0,0,0,0],"id":61,"left_children":[1,3,-1,-1,-1],"loss_changes":[4.707623E-2,7.180662E-2,0E0,0E0,0E0],"parents":[2147483647,0,0,1,1],"right_children":[2,4,-1,-1,-1],"split_conditions":[6.965732E-2,9.3095765E-2,-3.148357E-2,5.3101644E-2,-2.489951E-2],"split_indices":[1346,2180,0,0,0],"split_type":[0,0,0,0,0],"sum_hessian":[4.0494404E0,2.5320656E0,1.5173746E0,1.4522766E0,1.079789E0],"tree_param":{"num_deleted":"0","num_feature":"3120","num_nodes":"5","size_leaf_vector":"1"}},{"base_weights":[-9.668491E-4,-7.510975E-2,3.663487E-2,-5.198533E-2,2.6333852E-2],"categories":[],"categories_nodes":[],"categories_segments":[],"categories_sizes":[],"default_left":[0,1,0,0,0],"id":62,"left_children":[1,3,-1,-1,-1],"loss_changes":[5.4981574E-2,7.5209506E-2,0E0,0E0,0E0],"parents":[2147483647,0,0,1,1],"right_children":[2,4,-1,-1,-1],"split_conditions":[1.6416544E-1,1.0207424E-2,3.663487E-2,-5.198533E-2,2.6333852E-2],"split_indices":[2026,873,0,0,0],"split_type":[0,0,0,0,0],"sum_hessian":[4.019809E0,2.7518878E0,1.2679211E0,1.6772052E0,1.0746827E0],"tree_param":{"num_deleted":"0","num_feature":"3120","num_nodes":"5","size_leaf_vector":"1"}},{"base_weights":[1.4547546E-3,6.3550815E-2,-3.6813486E-2,5.9943747E-2,-1.553059E-2],"categories":[],"categories_nodes":[],"categories_segments":[],"categories_sizes":[],"default_left":[1,0,0,0,0],"id":63,"left_children":[1,3,-1,-1,-1],"loss_changes":[4.626556E-2,7.29572E-2,0E0,0E0,0E0],"parents":[2147483647,0,0,1,1],"right_children":[2,4,-1,-1,-1],"split_conditions":[1.03695765E-2,6.4091586E-2,-3.6813486E-2,5.9943747E-2,-1.553059E-2],"split_indices":[3028,1516,0,0,0],"split_type":[0,0,0,0,0],"sum_hessian":[3.989095E0,2.9846437E0,1.0044512E0,1.0322493E0,1.9523945E0],"tree_param":{"num_deleted":"0","num_feature":"3120","num_nodes":"5","size_leaf_vector":"1"}},{"base_weights":[2.6528751E-3,7.8979574E-2,-2.8932925E-2,5.9583727E-2,-2.9472737E-2],"categories":[],"categories_nodes":[],"categories_segments":[],"categories_sizes":[],"default_left":[1,1,0,0,0],"id":64,"left_children":[1,3,-1,-1,-1],"loss_changes":[4.5119E-2,9.055098E-2,0E0,0E0,0E0],"parents":[2147483647,0,0,1,1],"right_children":[2,4,-1,-1,-1],"split_conditions":[6.7525203E-3,1.0673798E-1,-2.8932925E-2,5.9583727E-2,-2.9472737E-2],"split_indices":[1055,2679,0,0,0],"split_type":[0,0,0,0,0],"sum_hessian":[3.958172E0,2.3506384E0,1.6075337E0,1.3312718E0,1.0193666E0],"tree_param":{"num_deleted":"0","num_feature":"3120","num_nodes":"5","size_leaf_vector":"1"}},{"base_weights":[2.212616E-3,3.6073323E-2,-6.157246E-2,2.2993658E-2,-4.56958E-2],"categories":[],"categories_nodes":[],"categories_segments":[],"categories_sizes":[],"default_left":[0,0,0,0,0],"id":65,"left_children":[1,-1,3,-1,-1],"loss_changes":[4.4478953E-2,0E0,6.006816E-2,0E0,0E0],"parents":[2147483647,0,0,2,2],"right_children":[2,-1,4,-1,-1],"split_conditions":[2.491225E-2,3.6073323E-2,1.0697953E-1,2.2993658E-2,-4.56958E-2],"split_indices":[1346,0,1516,0,0],"split_type":[0,0,0,0,0],"sum_hessian":[3.924539E0,1.0662799E0,2.8582592E0,1.1944166E0,1.6638424E0],"tree_param":{"num_deleted":"0","num_feature":"3120","num_nodes":"5","size_leaf_vector":"1"}},{"base_weights":[4.2449315E-3,-5.947911E-2,3.7170526E-2,3.1643126E-2,-4.95886E-2],"categories":[],"categories_nodes":[],"categories_segments":[],"categories_sizes":[],"default_left":[0,0,0,0,0],"id":66,"left_children":[1,3,-1,-1,-1],"loss_changes":[4.4712923E-2,8.50082E-2,0E0,0E0,0E0],"parents":[2147483647,0,0,1,1],"right_children":[2,4,-1,-1,-1],"split_conditions":[9.040292E-2,4.287369E-2,3.7170526E-2,3.1643126E-2,-4.95886E-2],"split_indices":[1548,1167,0,0,0],"split_type":[0,0,0,0,0],"sum_hessian":[3.897479E0,2.8712792E0,1.0261999E0,1.1233308E0,1.7479484E0],"tree_param":{"num_deleted":"0","num_feature":"3120","num_nodes":"5","size_leaf_vector":"1"}},{"base_weights":[6.891365E-3,-3.333586E-2,6.914569E-2,-1.953107E-2,6.382895E-2],"categories":[],"categories_nodes":[],"categories_segments":[],"categories_sizes":[],"default_left":[0,0,1,0,0],"id":67,"left_children":[1,-1,3,-1,-1],"loss_changes":[4.3437976E-2,0E0,8.716495E-2,0E0,0E0],"parents":[2147483647,0,0,2,2],"right_children":[2,-1,4,-1,-1],"split_conditions":[2.0175134E-1,-3.333586E-2,1.9131944E-2,-1.953107E-2,6.382895E-2],"split_indices":[950,0,3064,0,0],"split_type":[0,0,0,0,0],"sum_hessian":[3.8667557E0,1.0643042E0,2.8024516E0,1.7310274E0,1.0714241E0],"tree_param":{"num_deleted":"0","num_feature":"3120","num_nodes":"5","size_leaf_vector":"1"}},{"base_weights":[7.2542573E-3,-5.503342E-2,3.5915937E-2,2.5227588E-2,-6.006598E-2],"categories":[],"categories_nodes":[],"categories_segments":[],"categories_sizes":[],"default_left":[1,0,0,0,0],"id":68,"left_children":[1,3,-1,-1,-1],"loss_changes":[4.044287E-2,9.349792E-2,0E0,0E0,0E0],"parents":[2147483647,0,0,1,1],"right_children":[2,4,-1,-1,-1],"split_conditions":[5.5520087E-3,5.8111325E-2,3.5915937E-2,2.5227588E-2,-6.006598E-2],"split_indices":[2824,1346,0,0,0],"split_type":[0,0,0,0,0],"sum_hessian":[3.8327239E0,2.7952645E0,1.0374595E0,1.6423135E0,1.1529509E0],"tree_param":{"num_deleted":"0","num_feature":"3120","num_nodes":"5","size_leaf_vector":"1"}},{"base_weights":[5.234719E-3,-6.674295E-2,3.6533188E-2,2.7844757E-2,-4.9190257E-2],"categories":[],"categories_nodes":[],"categories_segments":[],"categories_sizes":[],"default_left":[0,1,0,0,0],"id":69,"left_children":[1,3,-1,-1,-1],"loss_changes":[4.8385154E-2,7.126388E-2,0E0,0E0,0E0],"parents":[2147483647,0,0,1,1],"right_children":[2,4,-1,-1,-1],"split_conditions":[1.6416544E-1,1.7497998E-2,3.6533188E-2,2.7844757E-2,-4.9190257E-2],"split_indices":[2026,3011,0,0,0],"split_type":[0,0,0,0,0],"sum_hessian":[3.7991364E0,2.612774E0,1.1863625E0,1.0064303E0,1.6063437E0],"tree_param":{"num_deleted":"0","num_feature":"3120","num_nodes":"5","size_leaf_vector":"1"}},{"base_weights":[6.819832E-3,3.423318E-2,-5.395169E-2,2.7258253E-2,-5.2740514E-2],"categories":[],"categories_nodes":[],"categories_segments":[],"categories_sizes":[],"default_left":[0,0,1,0,0],"id":70,"left_children":[1,-1,3,-1,-1],"loss_changes":[3.7263088E-2,0E0,8.169639E-2,0E0,0E0],"parents":[2147483647,0,0,2,2],"right_children":[2,-1,4,-1,-1],"split_conditions":[1.3711089E-1,3.423318E-2,5.4642316E-3,2.7258253E-2,-5.2740514E-2],"split_indices":[2095,0,1867,0,0],"split_type":[0,0,0,0,0],"sum_hessian":[3.770792E0,1.0461462E0,2.7246459E0,1.3612236E0,1.3634224E0],"tree_param":{"num_deleted":"0","num_feature":"3120","num_nodes":"5","size_leaf_vector":"1"}},{"base_weights":[6.581453E-3,3.4522053E-2,-5.8366E-2,-4.9138173E-2,2.6732473E-2],"categories":[],"categories_nodes":[],"categories_segments":[],"categories_sizes":[],"default_left":[0,0,0,0,0],"id":71,"left_children":[1,-1,3,-1,-1],"loss_changes":[4.0122993E-2,0E0,7.102098E-2,0E0,0E0],"parents":[2147483647,0,0,2,2],"right_children":[2,-1,4,-1,-1],"split_conditions":[3.8393375E-2,3.4522053E-2,4.054565E-2,-4.9138173E-2,2.6732473E-2],"split_indices":[2003,0,2640,0,0],"split_type":[0,0,0,0,0],"sum_hessian":[3.7410264E0,1.111881E0,2.6291456E0,1.468598E0,1.1605475E0],"tree_param":{"num_deleted":"0","num_feature":"3120","num_nodes":"5","size_leaf_vector":"1"}},{"base_weights":[7.1506663E-3,7.184596E-2,-2.7202917E-2,5.3526826E-2,-2.5262559E-2],"categories":[],"categories_nodes":[],"categories_segments":[],"categories_sizes":[],"default_left":[1,0,0,0,0],"id":72,"left_children":[1,3,-1,-1,-1],"loss_changes":[3.63297E-2,7.146561E-2,0E0,0E0,0E0],"parents":[2147483647,0,0,1,1],"right_children":[2,4,-1,-1,-1],"split_conditions":[5.8343124E-2,5.8295213E-2,-2.7202917E-2,5.3526826E-2,-2.5262559E-2],"split_indices":[2953,1346,0,0,0],"split_type":[0,0,0,0,0],"sum_hessian":[3.7108872E0,2.3935556E0,1.3173318E0,1.3370717E0,1.056484E0],"tree_param":{"num_deleted":"0","num_feature":"3120","num_nodes":"5","size_leaf_vector":"1"}},{"base_weights":[5.3395247E-3,-3.0719616E-2,6.329422E-2,-1.8622363E-2,5.9505016E-2],"categories":[],"categories_nodes":[],"categories_segments":[],"categories_sizes":[],"default_left":[0,0,1,0,0],"id":73,"left_children":[1,-1,3,-1,-1],"loss_changes":[3.573115E-2,0E0,7.435082E-2,0E0,0E0],"parents":[2147483647,0,0,2,2],"right_children":[2,-1,4,-1,-1],"split_conditions":[2.0175134E-1,-3.0719616E-2,1.9131944E-2,-1.8622363E-2,5.9505016E-2],"split_indices":[950,0,3064,0,0],"split_type":[0,0,0,0,0],"sum_hessian":[3.684529E0,1.0205126E0,2.6640165E0,1.6617949E0,1.0022216E0],"tree_param":{"num_deleted":"0","num_feature":"3120","num_nodes":"5","size_leaf_vector":"1"}},{"base_weights":[6.048884E-3,-5.989859E-2,3.314566E-2,2.3325818E-2,-4.5376357E-2],"categories":[],"categories_nodes":[],"categories_segments":[],"categories_sizes":[],"default_left":[0,1,0,0,0],"id":74,"left_children":[1,3,-1,-1,-1],"loss_changes":[3.8682118E-2,5.579965E-2,0E0,0E0,0E0],"parents":[2147483647,0,0,1,1],"right_children":[2,4,-1,-1,-1],"split_conditions":[1.6416544E-1,2.4499392E-2,3.314566E-2,2.3325818E-2,-4.5376357E-2],"split_indices":[2026,2897,0,0,0],"split_type":[0,0,0,0,0],"sum_hessian":[3.655531E0,2.5020492E0,1.1534818E0,1.0575222E0,1.4445269E0],"tree_param":{"num_deleted":"0","num_feature":"3120","num_nodes":"5","size_leaf_vector":"1"}},{"base_weights":[6.608416E-3,3.1697296E-2,-5.30081E-2,-4.9361713E-2,2.012905E-2],"categories":[],"categories_nodes":[],"categories_segments":[],"categories_sizes":[],"default_left":[0,0,0,0,0],"id":75,"left_children":[1,-1,3,-1,-1],"loss_changes":[3.295286E-2,0E0,5.8694724E-2,0E0,0E0],"parents":[2147483647,0,0,2,2],"right_children":[2,-1,4,-1,-1],"split_conditions":[3.8393375E-2,3.1697296E-2,7.689986E-2,-4.9361713E-2,2.012905E-2],"split_indices":[2003,0,1473,0,0],"split_type":[0,0,0,0,0],"sum_hessian":[3.632055E0,1.0745187E0,2.5575361E0,1.1342742E0,1.423262E0],"tree_param":{"num_deleted":"0","num_feature":"3120","num_nodes":"5","size_leaf_vector":"1"}},{"base_weights":[5.1260255E-3,-7.070956E-2,2.7611481E-2,1.2273441E-2,-4.4252884E-2],"categories":[],"categories_nodes":[],"categories_segments":[],"categories_sizes":[],"default_left":[1,1,0,0,0],"id":76,"left_children":[1,3,-1,-1,-1],"loss_changes":[3.6876034E-2,3.1975713E-2,0E0,0E0,0E0],"parents":[2147483647,0,0,1,1],"right_children":[2,4,-1,-1,-1],"split_conditions":[2.254153E-2,6.096977E-3,2.7611481E-2,1.2273441E-2,-4.4252884E-2],"split_indices":[2287,1867,0,0,0],"split_type":[0,0,0,0,0],"sum_hessian":[3.6074743E0,2.026057E0,1.5814174E0,1.0162867E0,1.0097702E0],"tree_param":{"num_deleted":"0","num_feature":"3120","num_nodes":"5","size_leaf_vector":"1"}},{"base_weights":[2.612663E-3,2.7822156E-2,-6.440324E-2,-4.894473E-2,2.0907378E-2],"categories":[],"categories_nodes":[],"categories_segments":[],"categories_sizes":[],"default_left":[0,0,1,0,0],"id":77,"left_children":[1,-1,3,-1,-1],"loss_changes":[3.37066E-2,0E0,5.405558E-2,0E0,0E0],"parents":[2147483647,0,0,2,2],"right_children":[2,-1,4,-1,-1],"split_conditions":[7.026993E-2,2.7822156E-2,1.588627E-2,-4.894473E-2,2.0907378E-2],"split_indices":[2372,0,1502,0,0],"split_type":[0,0,0,0,0],"sum_hessian":[3.5916917E0,1.3680204E0,2.2236714E0,1.1558458E0,1.0678257E0],"tree_param":{"num_deleted":"0","num_feature":"3120","num_nodes":"5","size_leaf_vector":"1"}},{"base_weights":[1.730843E-3,-2.249593E-2,2.5364386E-2],"categories":[],"categories_nodes":[],"categories_segments":[],"categories_sizes":[],"default_left":[0,0,0],"id":78,"left_children":[1,-1,-1],"loss_changes":[3.5374053E-2,0E0,0E0],"parents":[2147483647,0,0],"right_children":[2,-1,-1],"split_conditions":[1.1994217E-1,-2.249593E-2,2.5364386E-2],"split_indices":[401,0,0],"split_type":[0,0,0],"sum_hessian":[3.569779E0,1.9022199E0,1.6675591E0],"tree_param":{"num_deleted":"0","num_feature":"3120","num_nodes":"3","size_leaf_vector":"1"}},{"base_weights":[1.8444982E-3,2.5036277E-2,-2.254604E-2],"categories":[],"categories_nodes":[],"categories_segments":[],"categories_sizes":[],"default_left":[1,0,0],"id":79,"left_children":[1,-1,-1],"loss_changes":[3.4933217E-2,0E0,0E0],"parents":[2147483647,0,0],"right_children":[2,-1,-1],"split_conditions":[2.130025E-2,2.5036277E-2,-2.254604E-2],"split_indices":[2640,0,0],"split_type":[0,0,0],"sum_hessian":[3.5611596E0,1.6881003E0,1.8730592E0],"tree_param":{"num_deleted":"0","num_feature":"3120","num_nodes":"3","size_leaf_vector":"1"}},{"base_weights":[1.8416629E-3,-5.443978E-2,2.9714234E-2,2.0507641E-2,-5.211259E-2],"categories":[],"categories_nodes":[],"categories_segments":[],"categories_sizes":[],"default_left":[1,0,0,0,0],"id":80,"left_children":[1,3,-1,-1,-1],"loss_changes":[3.0299451E-2,6.355474E-2,0E0,0E0,0E0],"parents":[2147483647,0,0,1,1],"right_children":[2,4,-1,-1,-1],"split_conditions":[1.5723288E-2,1.0673798E-1,2.9714234E-2,2.0507641E-2,-5.211259E-2],"split_indices":[2198,2679,0,0,0],"split_type":[0,0,0,0,0],"sum_hessian":[3.5527089E0,2.5286133E0,1.0240954E0,1.4561846E0,1.0724287E0],"tree_param":{"num_deleted":"0","num_feature":"3120","num_nodes":"5","size_leaf_vector":"1"}},{"base_weights":[8.06579E-4,3.1417165E-2,-6.040215E-2,-4.5424007E-2,2.1448653E-2],"categories":[],"categories_nodes":[],"categories_segments":[],"categories_sizes":[],"default_left":[0,0,0,0,0],"id":81,"left_children":[1,-1,3,-1,-1],"loss_changes":[3.5139948E-2,0E0,5.2661065E-2,0E0,0E0],"parents":[2147483647,0,0,2,2],"right_children":[2,-1,4,-1,-1],"split_conditions":[3.8393375E-2,3.1417165E-2,4.054565E-2,-4.5424007E-2,2.1448653E-2],"split_indices":[2003,0,2640,0,0],"split_type":[0,0,0,0,0],"sum_hessian":[3.5301058E0,1.0450087E0,2.4850972E0,1.3829097E0,1.1021875E0],"tree_param":{"num_deleted":"0","num_feature":"3120","num_nodes":"5","size_leaf_vector":"1"}},{"base_weights":[2.1677667E-3,-2.0741828E-2,2.5368748E-2],"categories":[],"categories_nodes":[],"categories_segments":[],"categories_sizes":[],"default_left":[1,0,0],"id":82,"left_children":[1,-1,-1],"loss_changes":[3.232003E-2,0E0,0E0],"parents":[2147483647,0,0],"right_children":[2,-1,-1],"split_conditions":[2.254153E-2,-2.0741828E-2,2.5368748E-2],"split_indices":[2287,0,0],"split_type":[0,0,0],"sum_hessian":[3.5058582E0,1.9656198E0,1.5402383E0],"tree_param":{"num_deleted":"0","num_feature":"3120","num_nodes":"3","size_leaf_vector":"1"}},{"base_weights":[2.5515598E-3,-6.368234E-2,2.4737123E-2,1.6233282E-2,-4.4772908E-2],"categories":[],"categories_nodes":[],"categories_segments":[],"categories_sizes":[],"default_left":[1,1,0,0,0],"id":83,"left_children":[1,3,-1,-1,-1],"loss_changes":[2.9060096E-2,3.855302E-2,0E0,0E0,0E0],"parents":[2147483647,0,0,1,1],"right_children":[2,4,-1,-1,-1],"split_conditions":[1.5651759E-2,2.0927558E-2,2.4737123E-2,1.6233282E-2,-4.4772908E-2],"split_indices":[2994,1548,0,0,0],"split_type":[0,0,0,0,0],"sum_hessian":[3.4986763E0,2.0240035E0,1.4746728E0,1.0062498E0,1.0177538E0],"tree_param":{"num_deleted":"0","num_feature":"3120","num_nodes":"5","size_leaf_vector":"1"}},{"base_weights":[8.989174E-4,2.8033111E-2,-5.803437E-2,2.6274385E-2,-5.6736156E-2],"categories":[],"categories_nodes":[],"categories_segments":[],"categories_sizes":[],"default_left":[0,0,1,0,0],"id":84,"left_children":[1,-1,3,-1,-1],"loss_changes":[2.9865436E-2,0E0,8.06022E-2,0E0,0E0],"parents":[2147483647,0,0,2,2],"right_children":[2,-1,4,-1,-1],"split_conditions":[6.4091586E-2,2.8033111E-2,2.2150567E-2,2.6274385E-2,-5.6736156E-2],"split_indices":[1516,0,1346,0,0],"split_type":[0,0,0,0,0],"sum_hessian":[3.481597E0,1.1267079E0,2.3548892E0,1.272844E0,1.0820451E0],"tree_param":{"num_deleted":"0","num_feature":"3120","num_nodes":"5","size_leaf_vector":"1"}},{"base_weights":[-1.4401147E-5,2.7253842E-2,-6.518257E-2,-5.295484E-2,2.2762321E-2],"categories":[],"categories_nodes":[],"categories_segments":[],"categories_sizes":[],"default_left":[0,0,0,0,0],"id":85,"left_children":[1,-1,3,-1,-1],"loss_changes":[3.2285526E-2,0E0,6.325519E-2,0E0,0E0],"parents":[2147483647,0,0,2,2],"right_children":[2,-1,4,-1,-1],"split_conditions":[8.6036034E-2,2.7253842E-2,3.087812E-1,-5.295484E-2,2.2762321E-2],"split_indices":[1594,0,1867,0,0],"split_type":[0,0,0,0,0],"sum_hessian":[3.4524543E0,1.2774069E0,2.1750474E0,1.0751054E0,1.099942E0],"tree_param":{"num_deleted":"0","num_feature":"3120","num_nodes":"5","size_leaf_vector":"1"}},{"base_weights":[-7.5194176E-4,3.1011352E-2,-6.2084075E-2,-4.5976788E-2,1.3396392E-2],"categories":[],"categories_nodes":[],"categories_segments":[],"categories_sizes":[],"default_left":[0,0,0,0,0],"id":86,"left_children":[1,-1,3,-1,-1],"loss_changes":[3.4700625E-2,0E0,4.0046617E-2,0E0,0E0],"parents":[2147483647,0,0,2,2],"right_children":[2,-1,4,-1,-1],"split_conditions":[3.8393375E-2,3.1011352E-2,7.689986E-2,-4.5976788E-2,1.3396392E-2],"split_indices":[2003,0,1473,0,0],"split_type":[0,0,0,0,0],"sum_hessian":[3.4288306E0,1.0169424E0,2.4118881E0,1.0657569E0,1.3461312E0],"tree_param":{"num_deleted":"0","num_feature":"3120","num_nodes":"5","size_leaf_vector":"1"}},{"base_weights":[-9.337393E-4,6.47812E-2,-2.7433636E-2,4.9229216E-2,-2.0046232E-2],"categories":[],"categories_nodes":[],"categories_segments":[],"categories_sizes":[],"default_left":[0,1,0,0,0],"id":87,"left_children":[1,3,-1,-1,-1],"loss_changes":[3.2145012E-2,5.1997703E-2,0E0,0E0,0E0],"parents":[2147483647,0,0,1,1],"right_children":[2,4,-1,-1,-1],"split_conditions":[6.999007E-2,3.0415548E-2,-2.7433636E-2,4.9229216E-2,-2.0046232E-2],"split_indices":[1346,2897,0,0,0],"split_type":[0,0,0,0,0],"sum_hessian":[3.4084053E0,2.1393988E0,1.2690065E0,1.0785365E0,1.0608623E0],"tree_param":{"num_deleted":"0","num_feature":"3120","num_nodes":"5","size_leaf_vector":"1"}},{"base_weights":[-1.9949368E-4,-5.9674487E-2,2.6843384E-2,-4.9578767E-2,1.8420115E-2],"categories":[],"categories_nodes":[],"categories_segments":[],"categories_sizes":[],"default_left":[1,1,0,0,0],"id":88,"left_children":[1,3,-1,-1,-1],"loss_changes":[2.8738081E-2,5.1536866E-2,0E0,0E0,0E0],"parents":[2147483647,0,0,1,1],"right_children":[2,4,-1,-1,-1],"split_conditions":[5.1638946E-2,7.962974E-2,2.6843384E-2,-4.9578767E-2,1.8420115E-2],"split_indices":[1409,2679,0,0,0],"split_type":[0,0,0,0,0],"sum_hessian":[3.3870342E0,2.2376E0,1.1494341E0,1.0002935E0,1.2373067E0],"tree_param":{"num_deleted":"0","num_feature":"3120","num_nodes":"5","size_leaf_vector":"1"}},{"base_weights":[-1.1908836E-3,2.2479802E-2,-2.1706877E-2],"categories":[],"categories_nodes":[],"categories_segments":[],"categories_sizes":[],"default_left":[1,0,0],"id":89,"left_children":[1,-1,-1],"loss_changes":[2.9082298E-2,0E0,0E0],"parents":[2147483647,0,0],"right_children":[2,-1,-1],"split_conditions":[2.130025E-2,2.2479802E-2,-2.1706877E-2],"split_indices":[2640,0,0],"split_type":[0,0,0],"sum_hessian":[3.367523E0,1.6015034E0,1.7660196E0],"tree_param":{"num_deleted":"0","num_feature":"3120","num_nodes":"3","size_leaf_vector":"1"}},{"base_weights":[-6.5836974E-4,-2.0608403E-2,2.2020062E-2],"categories":[],"categories_nodes":[],"categories_segments":[],"categories_sizes":[],"default_left":[0,0,0],"id":90,"left_children":[1,-1,-1],"loss_changes":[2.7013367E-2,0E0,0E0],"parents":[2147483647,0,0],"right_children":[2,-1,-1],"split_conditions":[1.1994217E-1,-2.0608403E-2,2.2020062E-2],"split_indices":[401,0,0],"split_type":[0,0,0],"sum_hessian":[3.3605068E0,1.7892147E0,1.571292E0],"tree_param":{"num_deleted":"0","num_feature":"3120","num_nodes":"3","size_leaf_vector":"1"}},{"base_weights":[-1.373802E-4,-2.9677562E-2,5.885275E-2,4.0512927E-2,-1.7965483E-2],"categories":[],"categories_nodes":[],"categories_segments":[],"categories_sizes":[],"default_left":[1,0,1,0,0],"id":91,"left_children":[1,-1,3,-1,-1],"loss_changes":[3.1193707E-2,0E0,3.8420297E-2,0E0,0E0],"parents":[2147483647,0,0,2,2],"right_children":[2,-1,4,-1,-1],"split_conditions":[2.959415E-2,-2.9677562E-2,2.5150655E-2,4.0512927E-2,-1.7965483E-2],"split_indices":[2026,0,1507,0,0],"split_type":[0,0,0,0,0],"sum_hessian":[3.353781E0,1.0008047E0,2.3529763E0,1.3496344E0,1.0033418E0],"tree_param":{"num_deleted":"0","num_feature":"3120","num_nodes":"5","size_leaf_vector":"1"}},{"base_weights":[-1.711667E-3,1.9936029E-2,-2.2709256E-2],"categories":[],"categories_nodes":[],"categories_segments":[],"categories_sizes":[],"default_left":[1,0,0],"id":92,"left_children":[1,-1,-1],"loss_changes":[2.6894925E-2,0E0,0E0],"parents":[2147483647,0,0],"right_children":[2,-1,-1],"split_conditions":[2.8963797E-2,1.9936029E-2,-2.2709256E-2],"split_indices":[1346,0,0],"split_type":[0,0,0],"sum_hessian":[3.3354092E0,1.7889822E0,1.546427E0],"tree_param":{"num_deleted":"0","num_feature":"3120","num_nodes":"3","size_leaf_vector":"1"}},{"base_weights":[-1.8445053E-3,2.5139222E-2,-6.4783536E-2,-4.0066402E-2,1.0644399E-2],"categories":[],"categories_nodes":[],"categories_segments":[],"categories_sizes":[],"default_left":[0,0,1,0,0],"id":93,"left_children":[1,-1,3,-1,-1],"loss_changes":[2.875908E-2,0E0,2.5830142E-2,0E0,0E0],"parents":[2147483647,0,0,2,2],"right_children":[2,-1,4,-1,-1],"split_conditions":[7.026993E-2,2.5139222E-2,1.1154588E-2,-4.0066402E-2,1.0644399E-2],"split_indices":[2372,0,2287,0,0],"split_type":[0,0,0,0,0],"sum_hessian":[3.3282826E0,1.2694799E0,2.0588028E0,1.024254E0,1.0345489E0],"tree_param":{"num_deleted":"0","num_feature":"3120","num_nodes":"5","size_leaf_vector":"1"}},{"base_weights":[-2.3194011E-3,2.0214578E-2,-2.2219446E-2],"categories":[],"categories_nodes":[],"categories_segments":[],"categories_sizes":[],"default_left":[1,0,0],"id":94,"left_children":[1,-1,-1],"loss_changes":[2.6566623E-2,0E0,0E0],"parents":[2147483647,0,0],"right_children":[2,-1,-1],"split_conditions":[5.8687244E-2,2.0214578E-2,-2.2219446E-2],"split_indices":[2180,0,0],"split_type":[0,0,0],"sum_hessian":[3.3145504E0,1.712074E0,1.6024765E0],"tree_param":{"num_deleted":"0","num_feature":"3120","num_nodes":"3","size_leaf_vector":"1"}},{"base_weights":[-2.094279E-3,-6.0171768E-2,2.5496617E-2,-4.1267045E-2,1.2577987E-2],"categories":[],"categories_nodes":[],"categories_segments":[],"categories_sizes":[],"default_left":[1,1,0,0,0],"id":95,"left_children":[1,3,-1,-1,-1],"loss_changes":[2.6902968E-2,3.0813213E-2,0E0,0E0,0E0],"parents":[2147483647,0,0,1,1],"right_children":[2,4,-1,-1,-1],"split_conditions":[5.1638946E-2,8.4560476E-2,2.5496617E-2,-4.1267045E-2,1.2577987E-2],"split_indices":[1409,2679,0,0,0],"split_type":[0,0,0,0,0],"sum_hessian":[3.3082113E0,2.1700132E0,1.138198E0,1.0368447E0,1.1331686E0],"tree_param":{"num_deleted":"0","num_feature":"3120","num_nodes":"5","size_leaf_vector":"1"}},{"base_weights":[-2.250058E-3,5.574951E-2,-2.581213E-2,-1.5486425E-2,4.0947694E-2],"categories":[],"categories_nodes":[],"categories_segments":[],"categories_sizes":[],"default_left":[1,1,0,0,0],"id":96,"left_children":[1,3,-1,-1,-1],"loss_changes":[2.566528E-2,3.430619E-2,0E0,0E0,0E0],"parents":[2147483647,0,0,1,1],"right_children":[2,4,-1,-1,-1],"split_conditions":[5.8343124E-2,6.3075516E-3,-2.581213E-2,-1.5486425E-2,4.0947694E-2],"split_indices":[2953,948,0,0,0],"split_type":[0,0,0,0,0],"sum_hessian":[3.2941165E0,2.1444125E0,1.1497042E0,1.0752392E0,1.0691732E0],"tree_param":{"num_deleted":"0","num_feature":"3120","num_nodes":"5","size_leaf_vector":"1"}},{"base_weights":[-1.632918E-3,-2.099691E-2,2.1944392E-2],"categories":[],"categories_nodes":[],"categories_segments":[],"categories_sizes":[],"default_left":[0,0,0],"id":97,"left_children":[1,-1,-1],"loss_changes":[2.6996471E-2,0E0,0E0],"parents":[2147483647,0,0],"right_children":[2,-1,-1],"split_conditions":[1.1994217E-1,-2.099691E-2,2.1944392E-2],"split_indices":[401,0,0],"split_type":[0,0,0],"sum_hessian":[3.2796955E0,1.7469178E0,1.5327775E0],"tree_param":{"num_deleted":"0","num_feature":"3120","num_nodes":"3","size_leaf_vector":"1"}},{"base_weights":[-9.237764E-4,-5.7356313E-2,2.4784196E-2,1.9721992E-2,-4.677487E-2],"categories":[],"categories_nodes":[],"categories_segments":[],"categories_sizes":[],"default_left":[1,1,0,0,0],"id":98,"left_children":[1,3,-1,-1,-1],"loss_changes":[2.4882417E-2,4.83511E-2,0E0,0E0,0E0],"parents":[2147483647,0,0,1,1],"right_children":[2,4,-1,-1,-1],"split_conditions":[1.2924452E-2,4.942093E-3,2.4784196E-2,1.9721992E-2,-4.677487E-2],"split_indices":[1010,1055,0,0,0],"split_type":[0,0,0,0,0],"sum_hessian":[3.2730005E0,2.1404583E0,1.1325423E0,1.0998263E0,1.0406319E0],"tree_param":{"num_deleted":"0","num_feature":"3120","num_nodes":"5","size_leaf_vector":"1"}},{"base_weights":[-1.2408937E-3,2.457668E-2,-6.1499614E-2,1.1889611E-2,-3.969049E-2],"categories":[],"categories_nodes":[],"categories_segments":[],"categories_sizes":[],"default_left":[0,0,0,0,0],"id":99,"left_children":[1,-1,3,-1,-1],"loss_changes":[2.6356114E-2,0E0,2.699545E-2,0E0,0E0],"parents":[2147483647,0,0,2,2],"right_children":[2,-1,4,-1,-1],"split_conditions":[8.6036034E-2,2.457668E-2,1.2219051E-1,1.1889611E-2,-3.969049E-2],"split_indices":[1594,0,2994,0,0],"split_type":[0,0,0,0,0],"sum_hessian":[3.253967E0,1.216107E0,2.03786E0,1.0204782E0,1.0173818E0],"tree_param":{"num_deleted":"0","num_feature":"3120","num_nodes":"5","size_leaf_vector":"1"}}]},"name":"gbtree"},"learner_model_param":{"base_score":"4.4467193E-1","boost_from_average":"1","num_class":"0","num_feature":"3120","num_target":"1"},"objective":{"name":"binary:logistic","reg_loss_param":{"scale_pos_weight":"1"}}},"version":[2,0,3]}